{"learner":{"attributes":{"best_iteration":"109","best_ntree_limit":"110","scikit_learn":"{\"n_estimators\": 110, \"objective\": \"rank:pairwise\", \"max_depth\": 5, \"learning_rate\": 0.05, \"verbosity\": null, \"booster\": \"gbtree\", \"tree_method\": null, \"gamma\": null, \"min_child_weight\": null, \"max_delta_step\": null, \"subsample\": 0.75, \"colsample_bytree\": 0.5, \"colsample_bylevel\": null, \"colsample_bynode\": null, \"reg_alpha\": null, \"reg_lambda\": null, \"scale_pos_weight\": null, \"base_score\": null, \"missing\": NaN, \"num_parallel_tree\": null, \"random_state\": 42, \"n_jobs\": null, \"monotone_constraints\": null, \"interaction_constraints\": null, \"importance_type\": null, \"gpu_id\": null, \"validate_parameters\": null, \"predictor\": null, \"enable_categorical\": false, \"kwargs\": {\"eta\": 0.05}, \"_estimator_type\": \"ranker\"}"},"feature_names":[],"feature_types":[],"gradient_booster":{"model":{"gbtree_model_param":{"num_trees":"110","size_leaf_vector":"0"},"tree_info":[0,0,0,0,0,0,0,0,0,0,0,0,0,0,0,0,0,0,0,0,0,0,0,0,0,0,0,0,0,0,0,0,0,0,0,0,0,0,0,0,0,0,0,0,0,0,0,0,0,0,0,0,0,0,0,0,0,0,0,0,0,0,0,0,0,0,0,0,0,0,0,0,0,0,0,0,0,0,0,0,0,0,0,0,0,0,0,0,0,0,0,0,0,0,0,0,0,0,0,0,0,0,0,0,0,0,0,0,0,0],"trees":[{"base_weights":[-1.036001E-2,-4.8726466E-1,1.351808E-1,-6.526459E-1,2.4550898E-1,-7.6865673E-1,1.779901E-1,9.375E-1,-6.869806E-1,-5.180723E-1,9.882353E-1,-8.6614174E-1,8.75E-1,1.9713262E-2,4.0763226E-1,9.2E-1,-7.1428573E-1,9.411765E-1,-8.80597E-1,8.181818E-1,-9.346939E-1,9.8657715E-1,-2.5304593E-2,7.906404E-1,1.9919786E-1,-7.288857E-1,8.5714287E-1,7.1428573E-1,-9.5348835E-1,-9.66805E-1,6.666667E-1,6.415094E-1,-7.255099E-2,1.19170986E-1,9.967794E-1,5.0617284E-1,-9.23277E-2],"categories":[],"categories_nodes":[],"categories_segments":[],"categories_sizes":[],"default_left":[true,true,true,true,true,true,true,false,true,true,false,true,false,true,true,false,true,false,true,false,true,false,true,true,true,false,false,false,false,false,false,false,false,false,false,false,false],"id":0,"left_children":[1,3,5,7,9,11,13,-1,15,17,-1,19,-1,21,23,-1,25,-1,27,-1,29,-1,31,33,35,-1,-1,-1,-1,-1,-1,-1,-1,-1,-1,-1,-1],"loss_changes":[2.6805438E2,1.0959207E2,1.1462833E2,4.0882202E1,9.522301E1,2.222895E1,1.0270869E2,0E0,3.2337616E1,4.473694E1,0E0,1.5428673E1,0E0,7.288772E1,9.1888885E1,0E0,1.692569E1,0E0,8.470024E0,0E0,6.943672E0,0E0,5.0469585E1,5.6078125E1,6.698604E1,0E0,0E0,0E0,0E0,0E0,0E0,0E0,0E0,0E0,0E0,0E0,0E0],"parents":[2147483647,0,0,1,1,2,2,3,3,4,4,5,5,6,6,8,8,9,9,11,11,13,13,14,14,16,16,18,18,20,20,22,22,23,23,24,24],"right_children":[2,4,6,8,10,12,14,-1,16,18,-1,20,-1,22,24,-1,26,-1,28,-1,30,-1,32,34,36,-1,-1,-1,-1,-1,-1,-1,-1,-1,-1,-1,-1],"split_conditions":[1.3841078E-1,5E-1,8.2894737E-1,9.516113E-1,9.208262E-2,3.8855422E-1,2.4254158E-1,4.6875E-2,2.7861446E-2,8.706254E-2,4.9411766E-2,7.7560246E-2,4.375E-2,1.5103272E-1,2.9331613E-1,4.6E-2,8.9705884E-1,4.7058824E-2,9.7106624E-1,4.0909093E-2,5.2380955E-1,4.932886E-2,9.539075E-1,9.538332E-1,9.6350044E-1,-3.6444288E-2,4.2857144E-2,3.5714287E-2,-4.7674417E-2,-4.834025E-2,3.3333335E-2,3.2075472E-2,-3.6275496E-3,5.958549E-3,4.983897E-2,2.5308643E-2,-4.616385E-3],"split_indices":[47,91,42,2,47,77,47,0,77,47,0,77,0,47,47,0,71,0,2,0,16,0,2,2,2,0,0,0,0,0,0,0,0,0,0,0,0],"split_type":[0,0,0,0,0,0,0,0,0,0,0,0,0,0,0,0,0,0,0,0,0,0,0,0,0,0,0,0,0,0,0,0,0,0,0,0,0],"sum_hessian":[3.86E3,9.02E2,2.958E3,7.36E2,1.66E2,1.33E2,2.825E3,1.5E1,7.21E2,8.2E1,8.4E1,1.26E2,7E0,1.673E3,1.152E3,1.15E1,7.095E2,1.6E1,6.6E1,4.5E0,1.215E2,7.35E1,1.5995E3,4.05E2,7.47E2,7.035E2,6E0,2.5E0,6.35E1,1.195E2,2E0,1.05E2,1.4945E3,9.55E1,3.095E2,3.635E2,3.835E2],"tree_param":{"num_deleted":"0","num_feature":"92","num_nodes":"37","size_leaf_vector":"0"}},{"base_weights":[1.8894862E-2,-4.4280127E-2,6.1301315E-1,-4.1748405E-1,6.05018E-2,-7.389129E-2,8.40176E-1,2.0556916E-1,-5.312529E-1,-4.6883285E-2,2.7815238E-1,9.5700127E-1,-6.679069E-1,-3.3163694E-1,9.8201364E-1,-7.5624853E-1,9.77727E-1,9.369216E-1,-5.698863E-1,-8.350771E-2,9.7430104E-1,-2.4308257E-1,4.4314283E-1,-8.7713146E-1,8.5810375E-1,-8.106263E-1,8.7639076E-1,-9.417857E-1,8.231225E-1,-6.037806E-1,9.2419755E-1,-7.664028E-1,-4.1384052E-2,9.512618E-1,-4.197684E-1,9.7912234E-1,2.3374893E-1,6.941563E-1,-9.714079E-1,5.9675074E-1,-9.42729E-1],"categories":[],"categories_nodes":[],"categories_segments":[],"categories_sizes":[],"default_left":[true,true,true,true,true,true,true,true,true,true,true,false,true,true,false,true,false,false,true,true,false,true,true,true,false,true,false,false,false,false,false,false,false,false,false,false,false,false,false,false,false],"id":1,"left_children":[1,3,5,7,9,11,13,15,17,19,21,-1,23,25,-1,27,-1,-1,29,31,-1,33,35,37,-1,39,-1,-1,-1,-1,-1,-1,-1,-1,-1,-1,-1,-1,-1,-1,-1],"loss_changes":[1.4070996E2,1.3254749E2,5.6286346E1,5.277762E1,6.1876537E1,5.603739E1,4.534384E1,8.647912E1,3.6187042E1,6.6401306E1,7.532327E1,0E0,1.926551E1,1.806501E1,0E0,1.600517E1,0E0,0E0,3.1604965E1,4.923797E1,0E0,4.491061E1,7.436888E1,8.301289E0,0E0,4.6520786E0,0E0,0E0,0E0,0E0,0E0,0E0,0E0,0E0,0E0,0E0,0E0,0E0,0E0,0E0,0E0],"parents":[2147483647,0,0,1,1,2,2,3,3,4,4,5,5,6,6,7,7,8,8,9,9,10,10,12,12,13,13,15,15,18,18,19,19,21,21,22,22,23,23,25,25],"right_children":[2,4,6,8,10,12,14,16,18,20,22,-1,24,26,-1,28,-1,-1,30,32,-1,34,36,38,-1,40,-1,-1,-1,-1,-1,-1,-1,-1,-1,-1,-1,-1,-1,-1,-1],"split_conditions":[9.677311E-1,2.9015017E-1,9.966377E-1,9.9697655E-1,1.5737951E-1,9.7540987E-1,5E-1,9.86024E-1,9.8779345E-1,9.9851006E-1,2.976026E-1,4.7850065E-2,9.764749E-1,4.10051E-1,4.9100682E-2,9.939759E-2,4.888635E-2,4.684608E-2,9.988726E-1,9.8122907E-1,4.871505E-2,2.4740037E-1,9.8692983E-1,9.739925E-1,4.290519E-2,4.0651953E-1,4.381954E-2,-4.7089286E-2,4.1156124E-2,-3.0189032E-2,4.620988E-2,-3.832014E-2,-2.0692027E-3,4.756309E-2,-2.098842E-2,4.895612E-2,1.1687446E-2,3.4707814E-2,-4.8570395E-2,2.9837538E-2,-4.7136452E-2],"split_indices":[1,48,62,62,77,64,44,33,33,62,78,0,1,48,0,77,0,0,62,33,0,78,33,1,0,48,0,0,0,0,0,0,0,0,0,0,0,0,0,0,0],"split_type":[0,0,0,0,0,0,0,0,0,0,0,0,0,0,0,0,0,0,0,0,0,0,0,0,0,0,0,0,0,0,0,0,0,0,0,0,0,0,0,0,0],"sum_hessian":[3.7472017E3,3.3878801E3,3.5932147E2,7.420218E2,2.6458584E3,8.94658E1,2.6985568E2,1.1444714E2,6.2757465E2,1.7722467E3,8.736117E2,3.248251E1,5.6983288E1,2.8992414E1,2.4086325E2,5.0973713E1,6.347343E1,1.549438E1,6.1208026E2,1.7117727E3,6.0473923E1,2.099303E2,6.636814E2,5.0486515E1,6.496771E0,2.0996254E1,7.9961596E0,4.5976322E1,4.99739E0,5.9908545E2,1.2994776E1,9.845519E1,1.6133175E3,2.648894E1,1.8344136E2,1.8541191E2,4.782695E2,2.4975374E0,4.798898E1,1.4998654E0,1.949639E1],"tree_param":{"num_deleted":"0","num_feature":"92","num_nodes":"41","size_leaf_vector":"0"}},{"base_weights":[9.863869E-3,2.927261E-1,-1.5362291E-1,8.1306547E-1,1.5477936E-1,6.0369715E-2,-4.375875E-1,4.993686E-1,9.700792E-1,3.9785355E-2,7.7128714E-1,3.9063615E-1,-8.354266E-2,-5.7486564E-1,9.474693E-1,9.599015E-1,-9.133267E-1,4.5988783E-1,-2.954558E-1,-2.88059E-2,9.596216E-1,-4.855167E-1,7.366634E-1,-1.4232098E-1,9.558415E-1,9.475704E-1,-6.241519E-1,2.7115184E-1,9.657571E-1,-3.8161165E-1,9.437938E-1,9.207731E-1,-9.238698E-1,-7.799725E-1,9.254274E-1,8.2976705E-1,-5.5238504E-2,9.443613E-1,-1.8948258E-1,-1.6138104E-1,-6.904421E-1],"categories":[],"categories_nodes":[],"categories_segments":[],"categories_sizes":[],"default_left":[true,true,true,true,true,true,true,true,false,true,true,true,true,true,false,false,false,true,true,true,false,true,true,true,false,false,true,false,false,false,false,false,false,false,false,false,false,false,false,false,false],"id":2,"left_children":[1,3,5,7,9,11,13,15,-1,17,19,21,23,25,-1,-1,-1,27,29,31,-1,33,35,37,-1,-1,39,-1,-1,-1,-1,-1,-1,-1,-1,-1,-1,-1,-1,-1,-1],"loss_changes":[1.7581769E2,9.98298E1,1.4643799E2,1.3877197E1,7.809288E1,6.537952E1,1.974417E2,6.549493E1,0E0,1.3108325E2,2.6122917E1,1.26916306E2,5.8689316E1,7.133368E1,0E0,0E0,0E0,3.917491E1,5.563777E1,2.9721249E1,0E0,5.0075066E1,2.2139114E1,4.671347E1,0E0,0E0,2.792221E1,0E0,0E0,0E0,0E0,0E0,0E0,0E0,0E0,0E0,0E0,0E0,0E0,0E0,0E0],"parents":[2147483647,0,0,1,1,2,2,3,3,4,4,5,5,6,6,7,7,9,9,10,10,11,11,12,12,13,13,17,17,18,18,19,19,21,21,22,22,23,23,26,26],"right_children":[2,4,6,8,10,12,14,16,-1,18,20,22,24,26,-1,-1,-1,28,30,32,-1,34,36,38,-1,-1,40,-1,-1,-1,-1,-1,-1,-1,-1,-1,-1,-1,-1,-1,-1],"split_conditions":[9.741379E-1,9.397759E-1,9.8917633E-1,9.1917527E-1,9.915302E-1,3.5714287E-1,9.6579814E-1,9.1911054E-1,4.850396E-2,9.893951E-1,9.9613315E-1,9.84379E-1,7.6257473E-1,9.6033394E-1,4.7373466E-2,4.7995076E-2,-4.5666333E-2,9.584898E-1,9.9822795E-1,9.9612725E-1,4.798108E-2,9.962272E-1,9.985765E-1,9.1349465E-1,4.7792073E-2,4.737852E-2,8.3823526E-1,1.3557592E-2,4.8287854E-2,-1.9080583E-2,4.718969E-2,4.6038654E-2,-4.619349E-2,-3.8998626E-2,4.627137E-2,4.1488353E-2,-2.7619253E-3,4.7218066E-2,-9.474129E-3,-8.069052E-3,-3.4522105E-2],"split_indices":[40,1,33,1,33,16,1,1,0,33,32,33,17,2,0,0,0,1,32,32,0,32,32,1,0,0,71,0,0,0,0,0,0,0,0,0,0,0,0,0,0],"split_type":[0,0,0,0,0,0,0,0,0,0,0,0,0,0,0,0,0,0,0,0,0,0,0,0,0,0,0,0,0,0,0,0,0,0,0,0,0,0,0,0,0],"sum_hessian":[3.7999646E3,1.3915449E3,2.4084197E3,2.905788E2,1.1009662E3,1.3738721E3,1.0345476E3,9.832209E1,1.9225671E2,9.287886E2,1.7217758E2,4.1644727E2,9.574248E2,9.417884E2,9.2759224E1,7.4391335E1,2.3930754E1,4.120555E2,5.1673303E2,3.296802E1,1.3920956E2,1.1779165E2,2.986556E2,9.069962E2,5.042856E1,2.8961178E1,9.128272E2,3.012117E2,1.1084381E2,4.8379074E2,3.294231E1,1.5982919E1,1.6985104E1,9.782362E1,1.9968023E1,2.671939E2,3.1461702E1,3.693472E1,8.700615E2,1.1480557E2,7.9802167E2],"tree_param":{"num_deleted":"0","num_feature":"92","num_nodes":"41","size_leaf_vector":"0"}},{"base_weights":[6.648544E-4,-5.47231E-1,9.559211E-2,-6.447919E-1,9.116492E-1,5.8501568E-2,9.3259364E-1,-6.945333E-1,9.2452675E-1,4.2220566E-1,-3.5391457E-2,-3.686872E-1,-8.3226115E-1,-5.9066755E-1,5.316967E-1,-5.7663876E-1,2.3454688E-2,-5.8253956E-1,9.2881036E-1,8.014462E-1,-8.554443E-1,-8.718143E-1,8.785622E-1,3.584911E-1,9.569271E-1,9.0384996E-1,-6.721328E-1,-1.2071285E-1,3.6272025E-1],"categories":[],"categories_nodes":[],"categories_segments":[],"categories_sizes":[],"default_left":[true,true,true,true,false,true,false,true,false,true,true,true,true,true,true,true,true,false,false,false,false,false,false,false,false,false,false,false,false],"id":3,"left_children":[1,3,5,7,-1,9,-1,11,-1,13,15,17,19,21,23,25,27,-1,-1,-1,-1,-1,-1,-1,-1,-1,-1,-1,-1],"loss_changes":[1.9605896E2,7.981836E1,9.969085E1,4.141777E1,0E0,1.051154E2,0E0,2.2441147E1,0E0,7.035628E1,7.7954445E1,4.2825394E1,1.414975E1,2.6411974E1,4.167488E1,3.4539024E1,1.0804408E2,0E0,0E0,0E0,0E0,0E0,0E0,0E0,0E0,0E0,0E0,0E0,0E0],"parents":[2147483647,0,0,1,1,2,2,3,3,5,5,7,7,9,9,10,10,11,11,12,12,13,13,14,14,15,15,16,16],"right_children":[2,4,6,8,-1,10,-1,12,-1,14,16,18,20,22,24,26,28,-1,-1,-1,-1,-1,-1,-1,-1,-1,-1,-1,-1],"split_conditions":[2.4351533E-1,9.6626425E-1,9.744346E-1,7.866659E-1,4.5582462E-2,9.962701E-1,4.6629682E-2,9.657798E-1,4.6226338E-2,8.2894737E-1,9.9642396E-1,9.4683826E-1,9.893683E-1,3.0555558E-1,6.463901E-1,3.6651513E-1,4.4221863E-1,-2.9126978E-2,4.644052E-2,4.007231E-2,-4.2772215E-2,-4.3590717E-2,4.3928113E-2,1.7924555E-2,4.784636E-2,4.51925E-2,-3.360664E-2,-6.035642E-3,1.8136013E-2],"split_indices":[48,1,1,18,0,62,0,2,0,72,62,1,33,19,17,48,48,0,0,0,0,0,0,0,0,0,0,0,0],"split_type":[0,0,0,0,0,0,0,0,0,0,0,0,0,0,0,0,0,0,0,0,0,0,0,0,0,0,0,0,0],"sum_hessian":[3.7676157E3,5.556694E2,3.2119463E3,5.2136194E2,3.4307426E1,3.0766775E3,1.3526874E2,5.0588474E2,1.5477187E1,6.305771E2,2.4461006E3,1.5139081E2,3.5449393E2,6.1086533E1,5.6949054E2,2.3900578E2,2.2070947E3,1.3044243E2,2.0948374E1,4.490355E0,3.5000357E2,5.1616077E1,9.470456E0,4.0597232E2,1.6351823E2,1.3969239E1,2.2503654E2,1.5493556E3,6.577391E2],"tree_param":{"num_deleted":"0","num_feature":"92","num_nodes":"29","size_leaf_vector":"0"}},{"base_weights":[-4.82684E-2,-3.2807583E-1,1.5552506E-1,-4.4649655E-1,4.0900525E-1,-7.472085E-1,2.0523848E-1,9.290897E-1,-4.7501856E-1,-4.9224186E-1,9.2042726E-1,-8.056239E-1,7.5561494E-1,6.1800075E-1,1.11625135E-1,-2.750534E-1,-6.296786E-1,8.7360036E-1,-8.101355E-1,-8.442182E-1,6.7224723E-1,8.1776744E-1,-1.5706614E-1,-3.1419858E-1,2.5416517E-1,9.395214E-1,-3.5430866E-1,-6.624291E-1,9.037632E-1,6.3855386E-1,-8.630301E-1,-8.684136E-1,5.720223E-1,9.464126E-1,1.15964435E-1,-7.242018E-1,9.013066E-1,9.176665E-1,-4.103304E-1,8.155226E-3,5.667055E-1],"categories":[],"categories_nodes":[],"categories_segments":[],"categories_sizes":[],"default_left":[true,true,true,true,true,true,true,false,true,true,false,true,false,true,true,true,true,false,true,true,false,true,true,true,true,false,false,false,false,false,false,false,false,false,false,false,false,false,false,false,false],"id":4,"left_children":[1,3,5,7,9,11,13,-1,15,17,-1,19,-1,21,23,25,27,-1,29,31,-1,33,35,37,39,-1,-1,-1,-1,-1,-1,-1,-1,-1,-1,-1,-1,-1,-1,-1,-1],"loss_changes":[2.2461911E2,1.450694E2,1.02443344E2,5.6571106E1,1.0659848E2,1.1071693E1,8.343634E1,0E0,4.31929E1,3.7189857E1,0E0,7.1387253E0,0E0,6.195343E1,1.0707674E2,5.9371704E1,4.0268524E1,0E0,5.81374E0,4.3592834E0,0E0,2.8567642E1,5.027192E1,5.278295E1,1.01584785E2,0E0,0E0,0E0,0E0,0E0,0E0,0E0,0E0,0E0,0E0,0E0,0E0,0E0,0E0,0E0,0E0],"parents":[2147483647,0,0,1,1,2,2,3,3,4,4,5,5,6,6,8,8,9,9,11,11,13,13,14,14,15,15,16,16,18,18,19,19,21,21,22,22,23,23,24,24],"right_children":[2,4,6,8,10,12,14,-1,16,18,-1,20,-1,22,24,26,28,-1,30,32,-1,34,36,38,40,-1,-1,-1,-1,-1,-1,-1,-1,-1,-1,-1,-1,-1,-1,-1,-1],"split_conditions":[1.825875E-1,5E-1,8.2894737E-1,4.9956584E-1,9.208262E-2,5.277778E-1,9.9600196E-1,4.6454486E-2,9.892621E-1,8.706254E-2,4.6021365E-2,9.9594927E-1,3.7780747E-2,4.1494548E-1,9.964793E-1,1.19908206E-1,4.0294677E-1,4.368002E-2,9.6969736E-1,8.4714556E-1,3.3612363E-2,9.901611E-1,9.2857146E-1,8.815789E-1,2.4254158E-1,4.697607E-2,-1.7715434E-2,-3.3121455E-2,4.518816E-2,3.1927694E-2,-4.3151505E-2,-4.3420684E-2,2.8601116E-2,4.732063E-2,5.798222E-3,-3.621009E-2,4.5065332E-2,4.5883324E-2,-2.051652E-2,4.0776128E-4,2.8335277E-2],"split_indices":[47,15,72,17,47,19,32,0,33,47,0,32,0,47,32,47,48,0,2,48,0,33,43,72,47,0,0,0,0,0,0,0,0,0,0,0,0,0,0,0,0],"split_type":[0,0,0,0,0,0,0,0,0,0,0,0,0,0,0,0,0,0,0,0,0,0,0,0,0,0,0,0,0,0,0,0,0,0,0,0,0,0,0,0,0],"sum_hessian":[3.937207E3,1.6589149E3,2.278292E3,1.4296234E3,2.292915E2,1.18184204E2,2.160108E3,2.8398928E1,1.4012245E3,8.302291E1,1.462686E2,1.1420878E2,3.9754195E0,3.9830225E2,1.7618057E3,6.1231744E2,7.889071E2,1.5344893E1,6.767802E1,1.1172E2,2.4887831E0,3.1663678E2,8.166545E1,4.4154147E2,1.3202642E3,3.684341E1,5.75474E2,7.729665E2,1.5940608E1,1.9939888E0,6.568403E1,1.10223724E2,1.4962754E0,2.6729187E2,4.934492E1,5.3378166E1,2.8287285E1,3.1343943E1,4.1019754E2,7.393363E2,5.809278E2],"tree_param":{"num_deleted":"0","num_feature":"92","num_nodes":"41","size_leaf_vector":"0"}},{"base_weights":[1.9898983E-2,-2.7548817E-1,2.4394874E-1,-3.9310667E-1,4.9804094E-1,-6.853104E-1,2.9443976E-1,-7.4746794E-1,-2.8004667E-1,-3.3618566E-1,8.901701E-1,7.8506213E-1,-7.728838E-1,2.7714863E-2,3.7321842E-1,8.395511E-1,-7.9732126E-1,9.0549445E-1,-3.1159973E-1,8.720069E-1,-7.786699E-1,7.057627E-1,-8.253578E-1,-3.171728E-1,5.018843E-1,4.2044201E-1,-4.2223635E-1,-8.171536E-1,7.629533E-1,-3.4233692E-1,9.300001E-1,-8.527168E-1,5.596209E-1,-4.9162626E-1,8.987851E-1,9.526113E-1,-2.6727504E-1,2.9044637E-1,8.0408746E-1,-7.690727E-1,8.7299687E-1],"categories":[],"categories_nodes":[],"categories_segments":[],"categories_sizes":[],"default_left":[true,true,true,true,true,true,true,true,true,true,false,false,true,true,true,false,true,false,true,false,false,false,true,true,true,true,true,false,false,false,false,false,false,false,false,false,false,false,false,false,false],"id":5,"left_children":[1,3,5,7,9,11,13,15,17,19,-1,-1,21,23,25,-1,27,-1,29,-1,-1,-1,31,33,35,37,39,-1,-1,-1,-1,-1,-1,-1,-1,-1,-1,-1,-1,-1,-1],"loss_changes":[2.3848972E2,1.4161432E2,9.634826E1,5.386812E1,6.755449E1,1.4243629E1,4.084343E1,2.6452774E1,3.8620636E1,3.6211723E1,0E0,0E0,8.376907E0,7.283405E1,5.6557205E1,0E0,1.0416306E1,0E0,3.84459E1,0E0,0E0,0E0,4.170639E0,5.5146446E1,6.526224E1,7.044928E1,3.8680412E1,0E0,0E0,0E0,0E0,0E0,0E0,0E0,0E0,0E0,0E0,0E0,0E0,0E0,0E0],"parents":[2147483647,0,0,1,1,2,2,3,3,4,4,5,5,6,6,7,7,8,8,9,9,12,12,13,13,14,14,16,16,18,18,22,22,23,23,24,24,25,25,26,26],"right_children":[2,4,6,8,10,12,14,16,18,20,-1,-1,22,24,26,-1,28,-1,30,-1,-1,-1,32,34,36,38,40,-1,-1,-1,-1,-1,-1,-1,-1,-1,-1,-1,-1,-1,-1],"split_conditions":[1.825875E-1,5E-1,8.2894737E-1,2.1178442E-1,9.165233E-2,9.741379E-1,3.6240542E-1,9.969444E-1,5.03701E-1,8.706254E-2,4.4508506E-2,3.925311E-2,5.798934E-1,9.741379E-1,8.440286E-1,4.1977555E-2,7.84221E-1,4.5274723E-2,8.130686E-1,4.3600347E-2,-3.8933497E-2,3.5288136E-2,8.4714556E-1,2.304934E-1,2.4225473E-1,6.4638335E-1,8.537322E-1,-4.085768E-2,3.8147666E-2,-1.7116847E-2,4.650001E-2,-4.263584E-2,2.7981047E-2,-2.4581313E-2,4.4939257E-2,4.7630567E-2,-1.3363752E-2,1.4522319E-2,4.0204372E-2,-3.8453635E-2,4.3649845E-2],"split_indices":[47,15,42,48,47,40,48,62,17,47,0,0,48,40,18,0,18,0,18,0,0,0,48,47,47,17,18,0,0,0,0,0,0,0,0,0,0,0,0,0,0],"split_type":[0,0,0,0,0,0,0,0,0,0,0,0,0,0,0,0,0,0,0,0,0,0,0,0,0,0,0,0,0,0,0,0,0,0,0,0,0,0,0,0,0],"sum_hessian":[3.6015593E3,1.5533687E3,2.0481907E3,1.3487736E3,2.0459514E2,1.0490471E2,1.9432859E3,3.248845E2,1.0238891E3,6.5465225E1,1.391299E2,5.449076E0,9.945563E1,4.43399E2,1.4998868E3,9.412378E0,3.1547214E2,2.5826176E1,9.980629E2,1.728855E1,4.8176678E1,2.981835E0,9.647379E1,2.568847E2,1.8651428E2,1.4162784E3,8.3608505E1,3.1198285E2,3.489273E0,9.7465845E2,2.3404482E1,9.498183E1,1.4919697E0,2.2517459E2,3.1710106E1,1.1745007E2,6.906421E1,1.0591498E3,3.5712866E2,6.626922E1,1.7339283E1],"tree_param":{"num_deleted":"0","num_feature":"92","num_nodes":"41","size_leaf_vector":"0"}},{"base_weights":[-2.4620675E-2,3.109062E-1,-1.0667752E-1,7.074568E-1,1.42863E-1,9.2278695E-1,-1.350849E-1,9.099951E-1,-1.9802315E-2,4.7535375E-2,9.087928E-1,-2.0217486E-1,2.54643E-1,-9.5361036E-1,8.71266E-1,1.5664548E-1,-7.8407186E-1,-2.356746E-2,-3.6467347E-1,9.167148E-1,-8.909873E-2,3.8778836E-1,-2.868397E-1,-9.203934E-1,7.497029E-1,-4.3081352E-1,9.240502E-2,-4.36932E-1,1.8068628E-1,-3.108342E-1,8.59054E-1],"categories":[],"categories_nodes":[],"categories_segments":[],"categories_sizes":[],"default_left":[true,true,true,true,true,false,true,false,true,true,false,true,true,false,false,true,true,true,true,false,true,false,false,false,false,false,false,false,false,false,false],"id":6,"left_children":[1,3,5,7,9,-1,11,-1,13,15,-1,17,19,-1,-1,21,23,25,27,-1,29,-1,-1,-1,-1,-1,-1,-1,-1,-1,-1],"loss_changes":[1.0414699E2,4.9433273E1,8.900362E1,3.2569496E1,3.8168655E1,0E0,7.740532E1,0E0,4.1700695E1,4.2449394E1,0E0,7.326141E1,9.906381E1,0E0,0E0,4.246826E1,1.2037422E1,5.6890427E1,5.2166824E1,0E0,6.0648125E1,0E0,0E0,0E0,0E0,0E0,0E0,0E0,0E0,0E0,0E0],"parents":[2147483647,0,0,1,1,2,2,3,3,4,4,6,6,8,8,9,9,11,11,12,12,15,15,16,16,17,17,18,18,20,20],"right_children":[2,4,6,8,10,-1,12,-1,14,16,-1,18,20,-1,-1,22,24,26,28,-1,30,-1,-1,-1,-1,-1,-1,-1,-1,-1,-1],"split_conditions":[9.8685575E-1,9.741379E-1,6.2520325E-1,9.673776E-1,9.640715E-1,4.613935E-2,9.913274E-1,4.5499753E-2,9.674101E-1,9.638314E-1,4.5439642E-2,9.89172E-1,9.737698E-1,-4.768052E-2,4.3563303E-2,5E-1,3E-1,9.8720855E-1,9.3421054E-1,4.583574E-2,9.8320204E-1,1.9389419E-2,-1.4341985E-2,-4.601967E-2,3.7485145E-2,-2.1540677E-2,4.6202512E-3,-2.18466E-2,9.034314E-3,-1.554171E-2,4.29527E-2],"split_indices":[63,40,18,2,2,0,63,0,2,2,0,63,2,0,0,20,20,63,42,0,2,0,0,0,0,0,0,0,0,0,0],"split_type":[0,0,0,0,0,0,0,0,0,0,0,0,0,0,0,0,0,0,0,0,0,0,0,0,0,0,0,0,0,0,0],"sum_hessian":[3.780519E3,7.423388E2,3.0381802E3,2.1999103E2,5.223478E2,8.07398E1,2.9574404E3,1.7187373E2,4.811729E1,4.654766E2,5.6871166E1,2.5235103E3,4.339301E2,2.3460905E1,2.4656385E1,4.122053E2,5.32713E1,1.202714E3,1.3207963E3,1.4772809E2,2.8620203E2,2.7105698E2,1.4114833E2,4.9290306E1,3.9809957E0,2.6598233E2,9.367317E2,1.1664447E3,1.5435158E2,2.3250131E2,5.3700703E1],"tree_param":{"num_deleted":"0","num_feature":"92","num_nodes":"31","size_leaf_vector":"0"}},{"base_weights":[4.9409172E-3,-4.7865742E-1,8.762316E-2,-6.2018424E-1,2.9284176E-1,1.8183538E-1,-1.8107137E-1,4.1236203E-2,-6.940339E-1,-7.638409E-1,8.656675E-1,5.3700026E-2,4.1808805E-1,-3.1590483E-1,5.6600964E-1,8.951196E-1,-8.5622036E-1,8.235586E-1,-7.2435135E-1,9.0273577E-1,-1.413152E-3,9.001546E-1,1.1682488E-1,-5.0016516E-1,3.1123593E-2,-7.4461615E-1,8.865255E-1,7.786828E-1,-7.4323297E-1,-8.798038E-2,4.5195168E-1,9.06102E-1,-1.2336222E-1,-6.147776E-1,-1.23285905E-1,-1.8899682E-1,8.793024E-1,-8.4934336E-1,5.4932225E-1],"categories":[],"categories_nodes":[],"categories_segments":[],"categories_sizes":[],"default_left":[true,true,true,true,true,true,true,true,true,false,false,true,true,true,true,false,false,false,true,false,true,false,true,true,true,true,false,false,false,false,false,false,false,false,false,false,false,false,false],"id":7,"left_children":[1,3,5,7,9,11,13,15,17,-1,-1,19,21,23,25,-1,-1,-1,27,-1,29,-1,31,33,35,37,-1,-1,-1,-1,-1,-1,-1,-1,-1,-1,-1,-1,-1],"loss_changes":[1.4667787E2,5.866381E1,7.933414E1,2.2151169E1,5.1326565E1,7.0206566E1,8.2149536E1,3.6349396E1,1.9344254E1,0E0,0E0,7.043751E1,1.1834903E2,4.4135582E1,5.3073418E1,0E0,0E0,0E0,1.193132E1,0E0,5.5554558E1,0E0,9.548623E1,1.9394112E1,4.5019337E1,3.8625526E0,0E0,0E0,0E0,0E0,0E0,0E0,0E0,0E0,0E0,0E0,0E0,0E0,0E0],"parents":[2147483647,0,0,1,1,2,2,3,3,4,4,5,5,6,6,7,7,8,8,11,11,12,12,13,13,14,14,18,18,20,20,22,22,23,23,24,24,25,25],"right_children":[2,4,6,8,10,12,14,16,18,-1,-1,20,22,24,26,-1,-1,-1,28,-1,30,-1,32,34,36,38,-1,-1,-1,-1,-1,-1,-1,-1,-1,-1,-1,-1,-1],"split_conditions":[2.4351533E-1,5E-1,4.8271543E-1,9.97013E-1,9.5784795E-1,4.2240685E-1,5.7571435E-1,2.4338049E-1,9.8786074E-1,-3.8192045E-2,4.3283377E-2,9.957273E-1,9.741379E-1,1.378012E-1,8.2894737E-1,4.475598E-2,-4.2811017E-2,4.1177932E-2,2.7861446E-2,4.513679E-2,9.9822515E-1,4.500773E-2,3.611111E-1,9.8833364E-1,6.336746E-1,6.3517535E-1,4.4326276E-2,3.893414E-2,-3.716165E-2,-4.3990193E-3,2.2597585E-2,4.53051E-2,-6.168111E-3,-3.073888E-2,-6.164295E-3,-9.449841E-3,4.396512E-2,-4.246717E-2,2.7466113E-2],"split_indices":[48,15,78,32,1,48,78,48,63,0,0,32,70,77,72,0,0,0,77,0,32,0,19,63,17,17,0,0,0,0,0,0,0,0,0,0,0,0,0],"split_type":[0,0,0,0,0,0,0,0,0,0,0,0,0,0,0,0,0,0,0,0,0,0,0,0,0,0,0,0,0,0,0,0,0,0,0,0,0,0,0],"sum_hessian":[3.6662742E3,5.346109E2,3.1316633E3,4.5190738E2,8.270353E1,2.3189087E3,8.127546E2,4.5433372E1,4.06474E2,2.8955786E1,5.374774E1,1.504271E3,8.1463776E2,6.889837E2,1.2377089E2,2.328321E1,2.2150164E1,7.448771E0,3.9902524E2,9.075665E1,1.4135143E3,3.125395E2,5.0209827E2,4.4974374E2,2.3923994E2,2.4060713E1,9.9710175E1,4.4512486E0,3.9457397E2,1.1875625E3,2.2595181E2,1.16499054E2,3.855992E2,3.4438257E2,1.0536118E2,1.9056218E2,4.867776E1,2.2577002E1,1.4837112E0],"tree_param":{"num_deleted":"0","num_feature":"92","num_nodes":"39","size_leaf_vector":"0"}},{"base_weights":[-9.944719E-3,2.3668337E-1,-1.4586185E-1,3.2826282E-2,5.083949E-1,-5.983545E-1,-8.612021E-2,-1.14749454E-1,8.9123863E-1,8.863356E-1,5.0993662E-2,-6.6509986E-1,8.4144366E-1,-1.12201355E-1,8.9382845E-1,-2.242222E-1,9.0738744E-1,5.83157E-1,-3.006825E-1,7.798098E-1,-7.11791E-1,-1.2990251E-1,8.455051E-1,-2.6084667E-2,-6.879389E-1,-8.776686E-1,8.8232744E-1,8.525483E-1,-4.466951E-1,7.3358166E-1,-7.37179E-1,-6.9643056E-1,-1.0278723E-1],"categories":[],"categories_nodes":[],"categories_segments":[],"categories_sizes":[],"default_left":[true,true,true,true,true,true,true,true,false,false,true,true,false,true,false,true,false,true,true,false,true,true,false,false,false,false,false,false,false,false,false,false,false],"id":8,"left_children":[1,3,5,7,9,11,13,15,-1,-1,17,19,-1,21,-1,23,-1,25,27,-1,29,31,-1,-1,-1,-1,-1,-1,-1,-1,-1,-1,-1],"loss_changes":[1.2387963E2,7.2713326E1,6.435402E1,9.527312E1,9.724298E1,2.724685E1,5.392089E1,7.20343E1,0E0,0E0,4.8026478E1,1.8497772E1,0E0,3.4898148E1,0E0,5.3331276E1,0E0,4.5385277E1,2.6414768E1,0E0,1.001384E1,3.0893188E1,0E0,0E0,0E0,0E0,0E0,0E0,0E0,0E0,0E0,0E0,0E0],"parents":[2147483647,0,0,1,1,2,2,3,3,4,4,5,5,6,6,7,7,10,10,11,11,13,13,15,15,17,17,18,18,20,20,21,21],"right_children":[2,4,6,8,10,12,14,16,-1,-1,18,20,-1,22,-1,24,-1,26,28,-1,30,32,-1,-1,-1,-1,-1,-1,-1,-1,-1,-1,-1],"split_conditions":[9.741379E-1,4.2235827E-1,2.1168905E-1,9.9822515E-1,4.8261455E-1,9.911965E-1,9.986104E-1,4.3102807E-1,4.4561934E-2,4.431678E-2,9.0789473E-1,9.8804164E-1,4.2072184E-2,9.931076E-1,4.4691425E-2,4.035845E-1,4.536937E-2,4.8350462E-1,9.9611557E-1,3.899049E-2,2.7861446E-2,8.2894737E-1,4.2275257E-2,-1.3042333E-3,-3.4396946E-2,-4.388343E-2,4.4116374E-2,4.2627417E-2,-2.2334754E-2,3.6679085E-2,-3.685895E-2,-3.482153E-2,-5.1393616E-3],"split_indices":[70,48,48,32,78,33,32,78,0,0,42,33,0,33,0,78,0,78,32,0,77,72,0,0,0,0,0,0,0,0,0,0,0],"split_type":[0,0,0,0,0,0,0,0,0,0,0,0,0,0,0,0,0,0,0,0,0,0,0,0,0,0,0,0,0,0,0,0,0],"sum_hessian":[3.6935552E3,1.3120453E3,2.38151E3,7.502648E2,5.617805E2,2.7670282E2,2.1048071E3,6.409422E2,1.0932258E2,3.07096E2,2.546845E2,2.649581E2,1.1744722E1,2.051103E3,5.3704205E1,5.796421E2,6.13001E1,1.0107603E2,1.5360847E2,7.802402E0,2.571557E2,2.0147292E3,3.637362E1,4.0685623E2,1.7278586E2,1.6852573E1,8.422345E1,1.6719145E1,1.3688933E2,3.9574618E0,2.5319824E2,9.089744E1,1.9238319E3],"tree_param":{"num_deleted":"0","num_feature":"92","num_nodes":"33","size_leaf_vector":"0"}},{"base_weights":[2.0778814E-2,2.2047137E-1,-1.0369562E-1,-1.0277125E-2,3.940666E-1,8.836171E-1,-1.3065165E-1,-1.5812731E-1,5.5532014E-1,2.6463974E-1,6.9120616E-1,-1.5633878E-1,5.338092E-1,-2.0632878E-1,8.536833E-1,8.731502E-1,-4.206921E-1,3.8024512E-1,-7.4817914E-1,-5.6748E-1,8.8130426E-1,-4.2427802E-1,-8.97948E-2,8.7523156E-1,-5.406928E-2,8.3676976E-1,-2.5416437E-1,-8.556849E-1,7.7299535E-1,2.4975169E-1,8.7153E-1,-8.373865E-1,6.590249E-1,7.2678417E-1,-8.565681E-1,3.9815012E-1,-5.520389E-1,1.0946794E-1,-2.722459E-1,-7.8044695E-1,8.284944E-1],"categories":[],"categories_nodes":[],"categories_segments":[],"categories_sizes":[],"default_left":[true,true,true,true,true,false,true,true,true,true,true,true,true,true,false,false,true,true,true,true,false,true,true,false,true,false,false,false,false,false,false,false,false,false,false,false,false,false,false,false,false],"id":9,"left_children":[1,3,5,7,9,-1,11,13,15,17,19,21,23,25,-1,-1,27,29,31,33,-1,35,37,-1,39,-1,-1,-1,-1,-1,-1,-1,-1,-1,-1,-1,-1,-1,-1,-1,-1],"loss_changes":[8.920692E1,5.5203415E1,5.8956806E1,4.964292E1,3.0061455E1,0E0,3.6831493E1,2.3126158E1,3.853121E1,6.461633E1,5.7445953E1,3.6934807E1,1.6177086E1,2.2665276E1,0E0,0E0,1.6704226E1,3.1440155E1,7.6602573E0,1.2534206E1,0E0,4.3539566E1,6.046705E1,0E0,2.0177845E1,0E0,0E0,0E0,0E0,0E0,0E0,0E0,0E0,0E0,0E0,0E0,0E0,0E0,0E0,0E0,0E0],"parents":[2147483647,0,0,1,1,2,2,3,3,4,4,6,6,7,7,8,8,9,9,10,10,11,11,12,12,13,13,16,16,17,17,18,18,19,19,21,21,22,22,24,24],"right_children":[2,4,6,8,10,-1,12,14,16,18,20,22,24,26,-1,-1,28,30,32,34,-1,36,38,-1,40,-1,-1,-1,-1,-1,-1,-1,-1,-1,-1,-1,-1,-1,-1,-1,-1],"split_conditions":[9.741379E-1,3E-1,4.9469063E-1,2.2515061E-1,6.558428E-1,4.4180855E-2,7.6487935E-1,9.583333E-1,7.326102E-1,6.538178E-1,9.396552E-1,4.2921685E-2,8.352962E-1,3.3885542E-2,4.2684164E-2,4.365751E-2,7.360246E-1,3.561747E-1,8.3823526E-1,7.86449E-1,4.4065215E-2,2.7861446E-2,8.6764705E-1,4.3761577E-2,8.399879E-1,4.183849E-2,-1.2708219E-2,-4.2784244E-2,3.8649768E-2,1.2487585E-2,4.35765E-2,-4.1869324E-2,3.2951247E-2,3.633921E-2,-4.2828407E-2,1.9907506E-2,-2.7601946E-2,5.473397E-3,-1.36122955E-2,-3.902235E-2,4.142472E-2],"split_indices":[40,20,17,77,17,0,17,39,17,17,40,77,17,77,0,0,17,77,41,17,0,77,71,0,17,0,0,0,0,0,0,0,0,0,0,0,0,0,0,0,0],"split_type":[0,0,0,0,0,0,0,0,0,0,0,0,0,0,0,0,0,0,0,0,0,0,0,0,0,0,0,0,0,0,0,0,0,0,0,0,0,0,0,0,0],"sum_hessian":[3.5869402E3,1.3770259E3,2.2099143E3,5.915968E2,7.8542914E2,5.7887875E1,2.1520264E3,4.6956927E2,1.2202753E2,5.4843475E2,2.369944E2,2.0726648E3,7.936158E1,4.4897662E2,2.0592636E1,9.213118E1,2.9896347E1,4.92809E2,5.5625744E1,3.0836065E1,2.0615834E2,4.112781E2,1.6613867E3,4.9895157E1,2.9466421E1,1.8963688E1,4.3001294E2,2.2119072E1,7.777274E0,3.9057434E2,1.02234665E2,5.269045E1,2.935296E0,5.3536053E0,2.548246E1,5.5015236E1,3.5626288E2,7.942987E2,8.6708795E2,1.6226887E1,1.3239533E1],"tree_param":{"num_deleted":"0","num_feature":"92","num_nodes":"41","size_leaf_vector":"0"}},{"base_weights":[-6.7051756E-3,-2.5693524E-1,1.6354632E-1,-3.6024237E-1,3.4985682E-1,2.1291153E-1,-3.237063E-1,8.889067E-1,-4.063576E-1,-4.5222852E-1,8.359876E-1,2.936097E-1,-2.4596463E-1,8.7446964E-1,-6.219753E-1,-4.336642E-1,8.9121276E-1,8.0082524E-1,-7.393285E-1,1.0897951E-1,4.7268748E-1,3.5304084E-1,-5.565757E-1,8.231218E-1,-7.2554743E-1,-1.6469315E-1,-5.535701E-1,-7.979094E-1,6.0405767E-1,3.3166417E-1,-1.8190685E-1,2.3248549E-1,7.7708656E-1,8.327846E-1,-8.7642515E-1,8.50767E-1,-7.1655476E-1,-7.851769E-1,7.554957E-1],"categories":[],"categories_nodes":[],"categories_segments":[],"categories_sizes":[],"default_left":[true,true,true,true,true,true,true,false,true,true,false,true,true,false,true,true,false,false,true,true,true,true,true,false,true,false,false,false,false,false,false,false,false,false,false,false,false,false,false],"id":10,"left_children":[1,3,5,7,9,11,13,-1,15,17,-1,19,21,-1,23,25,-1,-1,27,29,31,33,35,-1,37,-1,-1,-1,-1,-1,-1,-1,-1,-1,-1,-1,-1,-1,-1],"loss_changes":[1.5706122E2,9.369885E1,5.284183E1,7.3867874E1,8.5252686E1,7.386532E1,7.281646E1,0E0,4.401442E1,3.0376478E1,0E0,5.5996704E1,5.5749672E1,0E0,2.491975E1,3.8823166E1,0E0,0E0,5.8237915E0,5.420998E1,6.2717224E1,6.1228302E1,4.4965668E1,0E0,1.4031845E1,0E0,0E0,0E0,0E0,0E0,0E0,0E0,0E0,0E0,0E0,0E0,0E0,0E0,0E0],"parents":[2147483647,0,0,1,1,2,2,3,3,4,4,5,5,6,6,8,8,9,9,11,11,12,12,14,14,15,15,18,18,19,19,20,20,21,21,22,22,24,24],"right_children":[2,4,6,8,10,12,14,-1,16,18,-1,20,22,-1,24,26,-1,-1,28,30,32,34,36,-1,38,-1,-1,-1,-1,-1,-1,-1,-1,-1,-1,-1,-1,-1,-1],"split_conditions":[1.8057945E-1,5E-1,9.913793E-1,9.1816896E-1,9.208262E-2,3.9199656E-1,9.879446E-1,4.4445336E-2,8.1338316E-1,8.706254E-2,4.179938E-2,7.033409E-1,9.741379E-1,4.3723483E-2,2.2991967E-1,9.887334E-1,4.4560637E-2,4.0041264E-2,9.661866E-1,6.823487E-1,2.4254158E-1,8.5068697E-1,8.9705884E-1,4.115609E-2,3.1884682E-1,-8.234657E-3,-2.7678505E-2,-3.989547E-2,3.0202884E-2,1.658321E-2,-9.095343E-3,1.1624275E-2,3.8854327E-2,4.163923E-2,-4.3821257E-2,4.2538352E-2,-3.5827737E-2,-3.9258845E-2,3.7774786E-2],"split_indices":[47,15,40,1,47,47,33,0,18,47,0,18,40,0,47,33,0,0,1,18,47,18,41,0,47,0,0,0,0,0,0,0,0,0,0,0,0,0,0],"split_type":[0,0,0,0,0,0,0,0,0,0,0,0,0,0,0,0,0,0,0,0,0,0,0,0,0,0,0,0,0,0,0,0,0,0,0,0,0,0,0],"sum_hessian":[3.6847202E3,1.491724E3,2.192996E3,1.2750511E3,2.166728E2,1.9917666E3,2.0122957E2,4.474491E1,1.2303063E3,8.179157E1,1.3488123E2,1.6941863E3,2.975803E2,3.972371E1,1.6150586E2,1.205601E3,2.4705364E1,1.4913207E1,6.6878365E1,8.3495325E2,8.5923303E2,1.0156951E2,1.9601077E2,1.0336587E1,1.5116928E2,3.7246555E2,8.331354E2,6.4472946E1,2.4054182E0,4.7283768E2,3.6211557E2,4.8124518E2,3.7798788E2,7.32929E1,2.827661E1,1.9566385E1,1.764444E2,1.4577016E2,5.3991184E0],"tree_param":{"num_deleted":"0","num_feature":"92","num_nodes":"39","size_leaf_vector":"0"}},{"base_weights":[-1.0301842E-2,-2.5088844E-1,1.5483971E-1,-3.5363284E-1,3.3577362E-1,9.630622E-2,5.8372235E-1,8.858057E-1,-3.9474374E-1,-4.6623012E-1,8.182614E-1,1.467896E-1,-3.6241585E-1,7.028329E-1,2.9008374E-2,-6.83341E-1,-3.2284164E-1,7.814008E-1,-7.3913723E-1,-5.0389465E-2,3.031649E-1,-4.887355E-1,8.3548486E-1,9.337007E-2,8.70801E-1,-8.9595217E-1,8.209484E-1,-7.060874E-1,7.0668024E-1,-3.6668655E-1,8.8547516E-1,5.950977E-1,-7.95304E-1,8.744698E-1,-1.7725523E-1,7.318038E-1,1.3195406E-1,8.316881E-1,-6.249803E-1,-7.8574246E-1,8.237108E-1],"categories":[],"categories_nodes":[],"categories_segments":[],"categories_sizes":[],"default_left":[true,true,true,true,true,true,true,false,true,true,false,true,true,true,true,true,true,false,true,true,true,true,false,true,false,false,false,false,false,false,false,false,false,false,false,false,false,false,false,false,false],"id":11,"left_children":[1,3,5,7,9,11,13,-1,15,17,-1,19,21,23,25,27,29,-1,31,33,35,37,-1,39,-1,-1,-1,-1,-1,-1,-1,-1,-1,-1,-1,-1,-1,-1,-1,-1,-1],"loss_changes":[1.4634183E2,9.0484375E1,5.4774963E1,6.5380295E1,8.703749E1,4.458721E1,1.7296951E1,0E0,2.5426666E1,2.9435713E1,0E0,5.3454197E1,2.9301624E1,2.200238E1,3.543715E1,8.2649765E0,5.2844887E1,0E0,5.723362E0,9.019725E1,7.084818E1,3.1707424E1,0E0,3.1291286E1,0E0,0E0,0E0,0E0,0E0,0E0,0E0,0E0,0E0,0E0,0E0,0E0,0E0,0E0,0E0,0E0,0E0],"parents":[2147483647,0,0,1,1,2,2,3,3,4,4,5,5,6,6,8,8,9,9,11,11,12,12,13,13,14,14,15,15,16,16,18,18,19,19,20,20,21,21,23,23],"right_children":[2,4,6,8,10,12,14,-1,16,18,-1,20,22,24,26,28,30,-1,32,34,36,38,-1,40,-1,-1,-1,-1,-1,-1,-1,-1,-1,-1,-1,-1,-1,-1,-1,-1,-1],"split_conditions":[1.8115318E-1,5E-1,9.9793565E-1,9.9574614E-1,9.208262E-2,9.913793E-1,5.366266E-1,4.4290286E-2,2.1178442E-1,8.706254E-2,4.091307E-2,2.3909926E-1,2.9847962E-1,8.8709676E-1,2.2920252E-1,5E-1,9.985863E-1,3.907004E-2,9.7106624E-1,9.961276E-1,2.8528398E-1,2.2991967E-1,4.1774243E-2,3.4113222E-1,4.354005E-2,-4.479761E-2,4.104742E-2,-3.530437E-2,3.5334013E-2,-1.8334327E-2,4.427376E-2,2.9754886E-2,-3.97652E-2,4.372349E-2,-8.862762E-3,3.659019E-2,6.597703E-3,4.1584406E-2,-3.1249015E-2,-3.9287124E-2,4.118554E-2],"split_indices":[47,15,32,32,47,40,48,0,48,47,0,47,47,38,47,16,32,0,2,32,47,47,0,48,0,0,0,0,0,0,0,0,0,0,0,0,0,0,0,0,0],"split_type":[0,0,0,0,0,0,0,0,0,0,0,0,0,0,0,0,0,0,0,0,0,0,0,0,0,0,0,0,0,0,0,0,0,0,0,0,0,0,0,0,0],"sum_hessian":[3.6813528E3,1.4981918E3,2.1831611E3,1.2752496E3,2.2294217E2,1.9220641E3,2.6109692E2,4.0281147E1,1.2349685E3,8.3755424E1,1.3918675E2,1.7321204E3,1.899437E2,2.1472357E2,4.637336E1,2.4462013E2,9.903483E2,1.4698059E1,6.9057365E1,7.6640784E2,9.657126E2,1.7236017E2,1.758352E1,4.672834E1,1.6799524E2,2.1329662E1,2.50437E1,2.4116571E2,3.454415E0,9.563431E2,3.4005276E1,2.4020386E0,6.665533E1,9.173815E1,6.746697E2,2.747019E2,6.910107E2,1.564373E1,1.5671643E2,2.117005E1,2.5558289E1],"tree_param":{"num_deleted":"0","num_feature":"92","num_nodes":"41","size_leaf_vector":"0"}},{"base_weights":[-3.7011568E-2,2.122093E-1,-1.7308748E-1,3.0049276E-1,-2.648954E-1,8.5584825E-1,-1.9850856E-1,-1.7436206E-1,3.612375E-1,-4.1509098E-1,8.126384E-1,8.4703714E-1,-2.2004496E-1,8.014371E-1,-5.3191507E-1,2.642853E-2,4.8999658E-1,3.72429E-2,-7.186191E-1,-2.5850847E-1,4.0639096E-1,7.604809E-1,-6.7680293E-1,-1.5143777E-1,8.4352744E-1,6.678449E-1,-1.2955567E-2,8.152502E-1,-5.1680785E-1,-7.956124E-1,6.947783E-1,-2.7753654E-1,8.172924E-1,8.808865E-1,-4.4722098E-1],"categories":[],"categories_nodes":[],"categories_segments":[],"categories_sizes":[],"default_left":[true,true,true,true,true,false,true,true,true,true,false,false,true,false,true,true,true,true,true,true,true,false,false,false,false,false,false,false,false,false,false,false,false,false,false],"id":12,"left_children":[1,3,5,7,9,-1,11,13,15,17,-1,-1,19,-1,21,23,25,27,29,31,33,-1,-1,-1,-1,-1,-1,-1,-1,-1,-1,-1,-1,-1,-1],"loss_changes":[1.2813486E2,5.628814E1,6.409131E1,3.255871E1,3.4146618E1,0E0,5.390545E1,4.5240166E1,4.3058945E1,2.5290613E1,0E0,0E0,5.6446877E1,0E0,1.8228952E1,4.0613544E1,6.455098E1,3.2682735E1,1.2541409E1,4.5336838E1,5.53401E1,0E0,0E0,0E0,0E0,0E0,0E0,0E0,0E0,0E0,0E0,0E0,0E0,0E0,0E0],"parents":[2147483647,0,0,1,1,2,2,3,3,4,4,6,6,7,7,8,8,9,9,12,12,14,14,15,15,16,16,17,17,18,18,19,19,20,20],"right_children":[2,4,6,8,10,-1,12,14,16,18,-1,-1,20,-1,22,24,26,28,30,32,34,-1,-1,-1,-1,-1,-1,-1,-1,-1,-1,-1,-1,-1,-1],"split_conditions":[9.741379E-1,7.35288E-1,4.9469063E-1,2.2672947E-1,7.917084E-1,4.2792413E-2,9.4451725E-1,5.7981927E-2,2.6190478E-1,3.7801206E-1,4.063192E-2,4.2351857E-2,9.3421054E-1,4.0071856E-2,1.8699381E-1,9.9070156E-1,9.3421054E-1,5.833334E-1,4.307229E-1,9.807688E-1,9.027778E-1,3.8024046E-2,-3.3840146E-2,-7.5718886E-3,4.2176373E-2,3.3392247E-2,-6.4777833E-4,4.076251E-2,-2.5840392E-2,-3.978062E-2,3.4738917E-2,-1.3876827E-2,4.086462E-2,4.4044327E-2,-2.236105E-2],"split_indices":[40,17,17,78,17,0,2,77,16,77,0,0,72,0,78,63,42,19,77,2,39,0,0,0,0,0,0,0,0,0,0,0,0,0,0],"split_type":[0,0,0,0,0,0,0,0,0,0,0,0,0,0,0,0,0,0,0,0,0,0,0,0,0,0,0,0,0,0,0,0,0,0,0],"sum_hessian":[3.776262E3,1.3334712E3,2.4427908E3,1.1255665E3,2.079047E2,5.810933E1,2.3846814E3,1.27443344E2,9.9812317E2,1.8301003E2,2.489467E1,4.7355247E1,2.3373262E3,3.3842422E1,9.360092E1,2.7757007E2,7.205531E2,7.384281E1,1.0916721E2,2.2026685E3,1.3465776E2,9.007298E0,8.459362E1,2.286189E2,4.895116E1,5.320778E2,1.8847527E2,3.0517788E1,4.3325024E1,1.0394217E2,5.2250447E0,2.1651152E3,3.7553146E1,8.652779E1,4.8129974E1],"tree_param":{"num_deleted":"0","num_feature":"92","num_nodes":"35","size_leaf_vector":"0"}},{"base_weights":[-1.4352147E-2,-3.8012308E-1,9.732683E-2,-5.2027375E-1,4.0571097E-1,2.942077E-1,-2.2172756E-2,-1.373958E-1,-6.4065015E-1,-2.0210195E-1,7.885714E-1,-8.436124E-2,4.6183375E-1,-6.7154247E-1,1.3377012E-2,8.8299227E-1,-4.189654E-1,8.441503E-1,-6.6312635E-1,-6.422227E-1,7.6336765E-1,3.2027796E-1,-3.3777887E-1,-4.949501E-1,5.10557E-1,-7.4352306E-1,7.54025E-1,5.8587234E-2,-4.1354892E-1,-5.674398E-1,8.857758E-1,-6.9456446E-1,-1.536686E-1,5.8989507E-1,-7.4549675E-1,-2.9796427E-1,8.6297566E-1,-4.2192876E-1,8.0404294E-1,7.379281E-1,-8.645907E-1,6.20695E-1,1.0018227E-1,-8.005278E-1,6.8780464E-1,4.104605E-3,6.0012645E-1,-6.0226655E-1,8.309321E-1],"categories":[],"categories_nodes":[],"categories_segments":[],"categories_sizes":[],"default_left":[true,true,true,true,true,true,true,true,true,true,false,true,true,true,true,false,true,false,true,true,false,true,true,true,true,true,false,true,true,false,false,false,false,false,false,false,false,false,false,false,false,false,false,false,false,false,false,false,false],"id":13,"left_children":[1,3,5,7,9,11,13,15,17,19,-1,21,23,25,27,-1,29,-1,31,33,-1,35,37,39,41,43,-1,45,47,-1,-1,-1,-1,-1,-1,-1,-1,-1,-1,-1,-1,-1,-1,-1,-1,-1,-1,-1,-1],"loss_changes":[1.5307979E2,9.6750084E1,6.755321E1,3.4217285E1,3.1163103E1,6.885749E1,4.127407E1,5.188794E1,1.9448975E1,2.2707317E1,0E0,3.432341E1,3.530008E1,1.0083019E1,3.2754288E1,0E0,2.7858032E1,0E0,8.832474E0,5.0786943E0,0E0,4.3542007E1,2.009985E1,1.7471256E1,3.2293503E1,7.799446E0,0E0,4.5264244E1,3.8664944E1,0E0,0E0,0E0,0E0,0E0,0E0,0E0,0E0,0E0,0E0,0E0,0E0,0E0,0E0,0E0,0E0,0E0,0E0,0E0,0E0],"parents":[2147483647,0,0,1,1,2,2,3,3,4,4,5,5,6,6,7,7,8,8,9,9,11,11,12,12,13,13,14,14,16,16,18,18,19,19,21,21,22,22,23,23,24,24,25,25,27,27,28,28],"right_children":[2,4,6,8,10,12,14,16,18,20,-1,22,24,26,28,-1,30,-1,32,34,-1,36,38,40,42,44,-1,46,48,-1,-1,-1,-1,-1,-1,-1,-1,-1,-1,-1,-1,-1,-1,-1,-1,-1,-1,-1,-1],"split_conditions":[1.3841078E-1,5E-1,9.741379E-1,9.8917127E-1,9.208262E-2,1.9176707E-1,8.2894737E-1,1.19908206E-1,9.9651426E-1,9.911326E-1,3.9428573E-2,1.7053929E-1,9.9405617E-1,9.952788E-1,3.9199656E-1,4.4149615E-2,9.9763453E-1,4.2207517E-2,3.157724E-1,8.634538E-2,3.8168382E-2,9.971347E-1,4.394422E-1,9.940028E-1,6.171596E-1,4.2545182E-1,3.770125E-2,9.981474E-1,9.0789473E-1,-2.837199E-2,4.428879E-2,-3.4728225E-2,-7.68343E-3,2.9494753E-2,-3.7274837E-2,-1.4898214E-2,4.3148782E-2,-2.1096438E-2,4.020215E-2,3.6896404E-2,-4.3229535E-2,3.103475E-2,5.009114E-3,-4.0026393E-2,3.4390233E-2,2.0523024E-4,3.0006323E-2,-3.0113328E-2,4.1546606E-2],"split_indices":[47,15,70,63,47,47,72,47,32,63,0,47,32,32,47,0,32,0,48,47,0,32,48,32,48,77,0,32,72,0,0,0,0,0,0,0,0,0,0,0,0,0,0,0,0,0,0,0,0],"split_type":[0,0,0,0,0,0,0,0,0,0,0,0,0,0,0,0,0,0,0,0,0,0,0,0,0,0,0,0,0,0,0,0,0,0,0,0,0,0,0,0,0,0,0,0,0,0,0,0,0],"sum_hessian":[3.7455564E3,8.7555035E2,2.8700059E3,7.433199E2,1.3223047E2,1.0834734E3,1.7865326E3,1.7831139E2,5.6500854E2,5.128489E1,8.094558E1,3.326681E2,7.508053E2,9.179886E1,1.6947336E3,3.810081E1,1.4021057E2,7.8801374E0,5.5712836E2,3.5456455E1,1.5828436E1,1.2800885E2,2.0465924E2,3.5937546E1,7.148678E2,8.784193E1,3.9569278E0,1.5332317E3,1.6150203E2,1.2639268E2,1.3817894E1,5.2440454E2,3.2723827E1,2.377662E0,3.3078793E1,6.005034E1,6.79585E1,1.9119876E2,1.3460475E1,8.059619E0,2.7877928E1,5.632011E2,1.5166664E2,8.490131E1,2.940614E0,1.3939938E3,1.3923793E2,1.4068422E2,2.0817818E1],"tree_param":{"num_deleted":"0","num_feature":"92","num_nodes":"49","size_leaf_vector":"0"}},{"base_weights":[-4.6463893E-3,-3.4954956E-1,8.996367E-2,-4.1497776E-1,7.710024E-1,3.494244E-1,-4.9259607E-2,7.9901986E-2,-5.2472335E-1,8.349695E-1,2.330034E-1,-6.436404E-1,-1.3115959E-2,8.9138734E-1,-4.0041196E-1,-6.1167735E-1,-1.4996573E-1,-8.797355E-2,5.2964145E-1,-7.277271E-1,7.6401037E-1,3.1957185E-1,-8.969944E-2,-6.662082E-1,8.54554E-1,7.632178E-1,-6.3011724E-1,-6.2294483E-1,7.7375937E-1,8.5030675E-1,-1.9698006E-1,-4.9507913E-1,6.111473E-1,6.7261326E-1,-7.774933E-1,8.664357E-1,-2.998222E-3,8.4756255E-1,-1.2160364E-1],"categories":[],"categories_nodes":[],"categories_segments":[],"categories_sizes":[],"default_left":[true,true,true,true,false,true,true,true,true,false,true,true,true,false,true,true,true,true,true,true,false,true,true,false,false,false,false,false,false,false,false,false,false,false,false,false,false,false,false],"id":14,"left_children":[1,3,5,7,-1,9,11,13,15,-1,17,19,21,-1,23,25,27,29,31,33,-1,35,37,-1,-1,-1,-1,-1,-1,-1,-1,-1,-1,-1,-1,-1,-1,-1,-1],"loss_changes":[1.1696799E2,5.6890877E1,1.01629745E2,3.9671997E1,0E0,5.5339897E1,3.9338524E1,5.2318348E1,1.937474E1,0E0,7.562874E1,1.2980549E1,4.4044205E1,0E0,2.8734028E1,1.276561E1,5.021389E1,3.9250534E1,3.4770767E1,7.4614983E0,0E0,5.706571E1,4.21186E1,0E0,0E0,0E0,0E0,0E0,0E0,0E0,0E0,0E0,0E0,0E0,0E0,0E0,0E0,0E0,0E0],"parents":[2147483647,0,0,1,1,2,2,3,3,5,5,6,6,7,7,8,8,10,10,11,11,12,12,14,14,15,15,16,16,17,17,18,18,19,19,21,21,22,22],"right_children":[2,4,6,8,-1,10,12,14,16,-1,18,20,22,-1,24,26,28,30,32,34,-1,36,38,-1,-1,-1,-1,-1,-1,-1,-1,-1,-1,-1,-1,-1,-1,-1,-1],"split_conditions":[1.3841078E-1,9.923897E-1,9.741379E-1,9.893329E-1,3.855012E-2,7.454819E-2,8.2894737E-1,1.2779689E-1,5E-1,4.1748475E-2,2.3479632E-1,3.8855422E-1,9.961375E-1,4.456937E-2,2.8390908E-1,9.9649626E-1,9.308663E-2,1.7053929E-1,9.94102E-1,7.7560246E-2,3.820052E-2,2.58319E-1,9.1487825E-1,-3.331041E-2,4.27277E-2,3.816089E-2,-3.1505864E-2,-3.1147242E-2,3.868797E-2,4.2515337E-2,-9.8490035E-3,-2.4753956E-2,3.0557364E-2,3.3630665E-2,-3.8874667E-2,4.3321785E-2,-1.499111E-4,4.2378128E-2,-6.080182E-3],"split_indices":[47,33,70,33,0,77,72,47,15,0,47,77,62,0,48,62,47,47,62,77,0,47,1,0,0,0,0,0,0,0,0,0,0,0,0,0,0,0,0],"split_type":[0,0,0,0,0,0,0,0,0,0,0,0,0,0,0,0,0,0,0,0,0,0,0,0,0,0,0,0,0,0,0,0,0,0,0,0,0,0,0],"sum_hessian":[3.5825688E3,7.7060724E2,2.8119614E3,7.2868933E2,4.1917965E1,9.8142957E2,1.8305319E3,1.3231383E2,5.963755E2,1.8861604E2,7.9281354E2,1.0396838E2,1.7265635E3,4.8878414E1,8.34354E1,4.8354718E2,1.12828285E2,3.811231E2,4.1169046E2,9.856365E1,5.40473E0,3.2248355E2,1.40408E3,6.923985E1,1.4195552E1,5.864909E0,4.7768228E2,7.483553E1,3.7992756E1,3.8961246E1,3.4216187E2,2.9959145E1,3.817313E2,2.953085E0,9.561057E1,1.190196E2,2.0346394E2,4.537961E1,1.3587003E3],"tree_param":{"num_deleted":"0","num_feature":"92","num_nodes":"39","size_leaf_vector":"0"}},{"base_weights":[6.9774697E-3,2.5169304E-1,-1.2801431E-1,5.1380503E-1,8.126654E-2,-1.731828E-1,5.5547667E-1,-5.4162085E-1,6.459128E-1,-5.4674035E-1,1.7907476E-1,1.7728741E-1,-2.5689927E-1,-2.941732E-1,8.195173E-1,-7.7322453E-1,7.3670065E-1,-2.4219684E-1,7.3304605E-1,7.74157E-1,-6.776711E-1,4.2576334E-1,-9.444742E-2,6.638633E-1,-1.8341316E-1,8.4230626E-1,-2.90814E-1,7.978495E-1,-6.776341E-1,-8.6888057E-1,5.7778597E-1,7.663339E-1,-9.179659E-1,8.2494617E-1,8.513001E-2,-7.3461854E-1,6.559257E-1,1.0747509E-1,6.781669E-1,-3.266271E-1,7.634169E-1,-7.8772134E-1,8.5251445E-1,8.3644676E-1,-3.2207003E-1,-3.1429273E-1,8.567349E-1,-8.358646E-1,6.016468E-1],"categories":[],"categories_nodes":[],"categories_segments":[],"categories_sizes":[],"default_left":[true,true,true,true,true,true,true,true,true,true,true,true,true,true,false,true,false,true,true,false,true,true,true,true,true,false,true,false,true,false,false,false,false,false,false,false,false,false,false,false,false,false,false,false,false,false,false,false,false],"id":15,"left_children":[1,3,5,7,9,11,13,15,17,19,21,23,25,27,-1,29,-1,31,33,-1,35,37,39,41,43,-1,45,-1,47,-1,-1,-1,-1,-1,-1,-1,-1,-1,-1,-1,-1,-1,-1,-1,-1,-1,-1,-1,-1],"loss_changes":[1.1588727E2,5.5669853E1,6.989604E1,6.88394E1,4.6592854E1,6.2291653E1,3.1736233E1,1.6909094E1,3.3995987E1,1.8208405E1,4.4283268E1,7.201859E1,6.4100105E1,1.4786518E1,0E0,6.6032867E0,0E0,2.7826777E1,2.364148E1,0E0,7.5874405E0,2.763871E1,6.23445E1,4.84877E1,3.3647655E1,0E0,4.5058228E1,0E0,5.709058E0,0E0,0E0,0E0,0E0,0E0,0E0,0E0,0E0,0E0,0E0,0E0,0E0,0E0,0E0,0E0,0E0,0E0,0E0,0E0,0E0],"parents":[2147483647,0,0,1,1,2,2,3,3,4,4,5,5,6,6,7,7,8,8,9,9,10,10,11,11,12,12,13,13,15,15,17,17,18,18,20,20,21,21,22,22,23,23,24,24,26,26,28,28],"right_children":[2,4,6,8,10,12,14,16,18,20,22,24,26,28,-1,30,-1,32,34,-1,36,38,40,42,44,-1,46,-1,48,-1,-1,-1,-1,-1,-1,-1,-1,-1,-1,-1,-1,-1,-1,-1,-1,-1,-1,-1,-1],"split_conditions":[9.741379E-1,9.509854E-1,9.668044E-1,1.388889E-1,9.518196E-1,9.961869E-1,8.75E-1,6.6717756E-1,8.985542E-1,6.9717026E-1,9.9761105E-1,8.9705884E-1,9.148487E-1,7.527657E-1,4.0975865E-2,1.0240964E-1,3.6835033E-2,8.9848393E-1,7.4982643E-1,3.870785E-2,9.978216E-1,9.9639904E-1,5E-1,8.472222E-1,5.679237E-1,4.2115312E-2,8.1463563E-1,3.9892476E-2,7.547046E-1,-4.344403E-2,2.8889298E-2,3.8316693E-2,-4.5898296E-2,4.124731E-2,4.256501E-3,-3.6730926E-2,3.2796286E-2,5.3737545E-3,3.390835E-2,-1.6331356E-2,3.8170844E-2,-3.9386068E-2,4.262572E-2,4.182234E-2,-1.6103502E-2,-1.5714636E-2,4.2836744E-2,-4.179323E-2,3.008234E-2],"split_indices":[40,1,1,19,1,32,69,18,1,18,32,41,1,18,0,77,0,1,17,0,32,32,15,69,17,0,18,0,18,0,0,0,0,0,0,0,0,0,0,0,0,0,0,0,0,0,0,0,0],"split_type":[0,0,0,0,0,0,0,0,0,0,0,0,0,0,0,0,0,0,0,0,0,0,0,0,0,0,0,0,0,0,0,0,0,0,0,0,0,0,0,0,0,0,0,0,0,0,0,0,0],"sum_hessian":[3.506083E3,1.2461588E3,2.259924E3,4.90211E2,7.559478E2,2.1205352E3,1.3938896E2,5.418895E1,4.3602206E2,1.0125028E2,6.546975E2,4.086494E2,1.7118859E3,3.302014E1,1.0636881E2,4.621156E1,7.9773912E0,3.8797443E1,3.972246E2,8.688045E0,9.256224E1,3.439415E2,3.1075604E2,1.7361148E2,2.3503792E2,5.0524017E1,1.6613618E3,8.300699E0,2.4719442E1,4.3489243E1,2.7223177E0,1.5512408E1,2.3285034E1,3.47642E2,4.9582626E1,8.9202255E1,3.3599856E0,1.5274783E2,1.9119365E2,2.4505228E2,6.570377E1,1.9602633E1,1.5400885E2,2.7528156E1,2.0750977E2,1.6287637E3,3.2598186E1,2.2306973E1,2.4124706E0],"tree_param":{"num_deleted":"0","num_feature":"92","num_nodes":"49","size_leaf_vector":"0"}},{"base_weights":[-2.995511E-2,1.3748209E-1,-1.3019025E-1,7.600825E-2,7.858766E-1,8.159143E-1,-1.547987E-1,-1.1128905E-2,4.9522278E-1,-2.7335092E-1,-4.306657E-2,8.0500865E-1,-6.327467E-2,-4.9831203E-1,8.0841213E-1,-2.2414988E-1,-6.02934E-1,6.277493E-1,-1.15514725E-1,4.7925207E-1,-1.3560323E-1,7.124794E-1,-6.8578446E-1,-2.472356E-1,7.935119E-1,7.5892085E-1,-6.7683935E-1,-2.6207945E-1,8.6692965E-1,-6.568912E-1,-3.376792E-2],"categories":[],"categories_nodes":[],"categories_segments":[],"categories_sizes":[],"default_left":[true,true,true,true,false,false,true,true,true,true,true,false,true,true,false,true,true,true,true,false,false,false,false,false,false,false,false,false,false,false,false],"id":16,"left_children":[1,3,5,7,-1,-1,9,11,13,15,17,-1,19,21,-1,23,25,27,29,-1,-1,-1,-1,-1,-1,-1,-1,-1,-1,-1,-1],"loss_changes":[6.172657E1,5.484044E1,5.3686584E1,4.6002277E1,0E0,0E0,2.969931E1,4.4458946E1,6.783591E1,1.7509338E1,5.624878E1,0E0,3.8588173E1,1.2419006E1,0E0,2.2476383E1,1.4679333E1,2.4239674E1,4.618442E1,0E0,0E0,0E0,0E0,0E0,0E0,0E0,0E0,0E0,0E0,0E0,0E0],"parents":[2147483647,0,0,1,1,2,2,3,3,6,6,7,7,8,8,9,9,10,10,12,12,13,13,15,15,16,16,17,17,18,18],"right_children":[2,4,6,8,-1,-1,10,12,14,16,18,-1,20,22,-1,24,26,28,30,-1,-1,-1,-1,-1,-1,-1,-1,-1,-1,-1,-1],"split_conditions":[9.741379E-1,8.9705884E-1,4.946283E-1,9.980264E-1,3.929383E-2,4.0795714E-2,7.072495E-1,6.4137816E-1,9.980469E-1,7.027477E-1,7.237242E-1,4.025043E-2,9.96114E-1,4.722222E-1,4.0420607E-2,9.9858904E-1,2.7822772E-1,9.375E-1,7.260624E-1,2.3962604E-2,-6.780162E-3,3.562397E-2,-3.4289222E-2,-1.236178E-2,3.9675597E-2,3.794604E-2,-3.3841968E-2,-1.3103972E-2,4.3346483E-2,-3.2844562E-2,-1.688396E-3],"split_indices":[40,41,17,62,0,0,18,18,21,18,18,0,62,19,0,62,78,37,18,0,0,0,0,0,0,0,0,0,0,0,0],"split_type":[0,0,0,0,0,0,0,0,0,0,0,0,0,0,0,0,0,0,0,0,0,0,0,0,0,0,0,0,0,0,0],"sum_hessian":[3.6758354E3,1.3763494E3,2.299486E3,1.2581794E3,1.1816991E2,5.747885E1,2.2420073E3,1.0424675E3,2.1571191E2,1.0871022E3,1.1549052E3,6.1739525E1,9.8072797E2,5.1559128E1,1.6415279E2,9.473581E2,1.3974406E2,1.1182492E2,1.0430802E3,1.1470621E2,8.660218E2,6.537328E0,4.50218E1,9.2708417E2,2.0273901E1,6.71618E0,1.330279E2,2.36698E1,8.815512E1,1.3591745E2,9.071628E2],"tree_param":{"num_deleted":"0","num_feature":"92","num_nodes":"31","size_leaf_vector":"0"}},{"base_weights":[-6.7332E-3,5.398826E-1,-3.6073215E-2,8.346525E-1,3.4696087E-2,-5.068653E-2,7.9076064E-1,-5.064E-1,7.9281175E-1,1.4798223E-2,-2.8704816E-1,6.957483E-1,-7.032285E-1,8.059358E-1,-9.564675E-3,-4.3335947E-1,6.27636E-2,-7.859546E-1,5.192932E-1,-2.898261E-2,8.238524E-1,-4.7868913E-1,7.932201E-1,5.204685E-1,-5.054622E-1],"categories":[],"categories_nodes":[],"categories_segments":[],"categories_sizes":[],"default_left":[true,true,true,false,true,true,false,true,false,true,true,false,true,false,true,true,true,false,false,false,false,false,false,false,false],"id":17,"left_children":[1,3,5,-1,7,9,-1,11,-1,13,15,-1,17,-1,19,21,23,-1,-1,-1,-1,-1,-1,-1,-1],"loss_changes":[5.717271E1,2.7013988E1,4.091704E1,0E0,2.827971E1,5.147292E1,0E0,1.0016986E1,0E0,5.0213795E1,3.6952316E1,0E0,3.9578075E0,0E0,4.0934723E1,2.8670204E1,5.5825836E1,0E0,0E0,0E0,0E0,0E0,0E0,0E0,0E0],"parents":[2147483647,0,0,1,1,2,2,4,4,5,5,7,7,9,9,10,10,12,12,14,14,15,15,16,16],"right_children":[2,4,6,-1,8,10,-1,12,-1,14,16,-1,18,-1,20,22,24,-1,-1,-1,-1,-1,-1,-1,-1],"split_conditions":[2.1428572E-1,4.6226388E-1,6.082235E-1,4.1732624E-2,1.388889E-1,4.8059738E-1,3.9538033E-2,9.8611224E-1,3.9640587E-2,9.4877815E-1,9.9679124E-1,3.4787416E-2,9.8917496E-1,4.029679E-2,4.6080646E-1,5.476191E-1,4.722222E-1,-3.929773E-2,2.596466E-2,-1.4491305E-3,4.119262E-2,-2.3934457E-2,3.9661005E-2,2.6023423E-2,-2.5273113E-2],"split_indices":[16,78,78,0,19,78,0,33,0,2,62,0,63,0,78,16,19,0,0,0,0,0,0,0,0],"split_type":[0,0,0,0,0,0,0,0,0,0,0,0,0,0,0,0,0,0,0,0,0,0,0,0,0],"sum_hessian":[3.5626765E3,1.8060144E2,3.3820752E3,1.1364113E2,6.696031E1,3.3242615E3,5.78137E1,3.9266407E1,2.7693903E1,2.6038062E3,7.2045544E2,5.167939E0,3.4098465E1,7.682974E1,2.5269763E3,5.0781802E2,2.1263742E2,3.227179E1,1.8266784E0,2.4703835E3,5.6592686E1,4.903079E2,1.7510153E1,1.1781871E2,9.481871E1],"tree_param":{"num_deleted":"0","num_feature":"92","num_nodes":"25","size_leaf_vector":"0"}},{"base_weights":[3.163484E-2,-1.9085187E-1,1.3940336E-1,4.8874807E-1,-2.6233432E-1,8.673556E-1,1.10703245E-1,8.2630056E-1,-5.475827E-1,8.1748885E-1,-3.045171E-1,-5.928363E-1,1.4846455E-1,-7.73644E-1,6.507841E-1,-4.374881E-1,3.017E-2,-6.7862284E-1,7.0000887E-1,8.1517863E-1,1.0160719E-1,-4.7234812E-1,8.338001E-1,8.833013E-1,-1.0943259E-1,7.0785564E-1,-7.449629E-1,4.666133E-2,5.0576943E-1],"categories":[],"categories_nodes":[],"categories_segments":[],"categories_sizes":[],"default_left":[true,true,true,true,true,false,true,false,true,false,true,true,true,false,false,true,true,true,false,false,true,false,false,false,false,false,false,false,false],"id":18,"left_children":[1,3,5,7,9,-1,11,-1,13,-1,15,17,19,-1,-1,21,23,25,-1,-1,27,-1,-1,-1,-1,-1,-1,-1,-1],"loss_changes":[8.121078E1,5.382351E1,4.757191E1,3.7373566E1,4.5833687E1,0E0,5.843369E1,0E0,7.6913433E0,0E0,4.2908875E1,1.2904949E1,6.505768E1,0E0,0E0,3.096701E1,3.2848484E1,1.0240974E1,0E0,0E0,4.326576E1,0E0,0E0,0E0,0E0,0E0,0E0,0E0,0E0],"parents":[2147483647,0,0,1,1,2,2,3,3,4,4,6,6,8,8,10,10,11,11,12,12,15,15,16,16,17,17,20,20],"right_children":[2,4,6,8,10,-1,12,-1,14,-1,16,18,20,-1,-1,22,24,26,-1,-1,28,-1,-1,-1,-1,-1,-1,-1,-1],"split_conditions":[1.676707E-1,8.3823526E-1,1.7828456E-1,9.7685146E-1,9.540862E-1,4.336778E-2,1.8115318E-1,4.131503E-2,9.7699946E-1,4.0874444E-2,9.5788676E-1,9.5822155E-1,6.427458E-1,-3.86822E-2,3.2539204E-2,9.305556E-1,9.650953E-1,9.6186054E-1,3.5000443E-2,4.0758934E-2,9.305556E-1,-2.3617407E-2,4.1690003E-2,4.4165067E-2,-5.4716296E-3,3.5392784E-2,-3.7248146E-2,2.3330664E-3,2.5288472E-2],"split_indices":[47,71,47,2,2,0,47,0,2,0,1,1,18,0,0,39,1,2,0,0,39,0,0,0,0,0,0,0,0],"split_type":[0,0,0,0,0,0,0,0,0,0,0,0,0,0,0,0,0,0,0,0,0,0,0,0,0,0,0,0,0],"sum_hessian":[3.3849102E3,1.1043085E3,2.2806016E3,1.04544334E2,9.9976416E2,8.539572E1,2.1952058E3,7.901147E1,2.5532862E1,3.6895992E1,9.6286816E2,1.1107335E2,2.0841326E3,2.1778885E1,3.753976E0,6.888724E2,2.7399582E2,1.0460725E2,6.466103E0,1.3577986E2,1.9483527E3,6.7109863E2,1.777376E1,3.778135E1,2.3621446E2,4.335111E0,1.0027214E2,1.7161566E3,2.3219604E2],"tree_param":{"num_deleted":"0","num_feature":"92","num_nodes":"29","size_leaf_vector":"0"}},{"base_weights":[3.746039E-2,-3.7488294E-1,1.6783412E-1,-4.340177E-1,7.3652595E-1,1.1217355E-1,6.589354E-1,7.7958566E-1,-4.6122968E-1,-8.0617905E-2,2.7537432E-1,-4.934377E-1,7.9106116E-1,-4.820099E-1,7.9181594E-1,8.230781E-1,-1.6794755E-1,-3.5529056E-1,3.515893E-1,6.381236E-1,-7.6618534E-1,-5.474332E-1,-1.02286674E-1,-3.1603062E-1,1.9859013E-1,-5.2670854E-1,7.951069E-1,6.743701E-1,2.593346E-1],"categories":[],"categories_nodes":[],"categories_segments":[],"categories_sizes":[],"default_left":[true,true,true,true,false,true,true,false,true,true,true,true,false,true,false,false,true,true,true,false,false,false,false,false,false,false,false,false,false],"id":19,"left_children":[1,3,5,7,-1,9,11,-1,13,15,17,19,-1,21,-1,-1,23,25,27,-1,-1,-1,-1,-1,-1,-1,-1,-1,-1],"loss_changes":[1.8342638E2,5.4191414E1,7.078325E1,2.6082397E1,0E0,7.331691E1,4.0537704E1,0E0,2.0234634E1,8.448002E1,6.0774345E1,9.049835E0,0E0,1.8591705E1,0E0,0E0,5.3003525E1,2.734478E1,3.336264E1,0E0,0E0,0E0,0E0,0E0,0E0,0E0,0E0,0E0,0E0],"parents":[2147483647,0,0,1,1,2,2,3,3,5,5,6,6,8,8,9,9,10,10,11,11,13,13,16,16,17,17,18,18],"right_children":[2,4,6,8,-1,10,12,-1,14,16,18,20,-1,22,-1,-1,24,26,28,-1,-1,-1,-1,-1,-1,-1,-1,-1,-1],"split_conditions":[1.3841078E-1,9.92396E-1,9.910556E-1,9.9578625E-1,3.6826298E-2,2.1873206E-1,2.2544803E-1,3.8979284E-2,8.140465E-1,9.9611413E-1,9.9439764E-1,9.938819E-1,3.9553057E-2,5E-1,3.95908E-2,4.1153904E-2,9.976593E-1,3.1339645E-1,6.823137E-1,3.190618E-2,-3.830927E-2,-2.737166E-2,-5.1143337E-3,-1.5801532E-2,9.929507E-3,-2.6335428E-2,3.9755344E-2,3.3718508E-2,1.296673E-2],"split_indices":[47,33,63,62,0,47,48,0,18,62,62,33,0,15,0,0,62,47,18,0,0,0,0,0,0,0,0,0,0],"split_type":[0,0,0,0,0,0,0,0,0,0,0,0,0,0,0,0,0,0,0,0,0,0,0,0,0,0,0,0,0],"sum_hessian":[3.4098591E3,8.186799E2,2.5911792E3,7.7789966E2,4.078024E1,2.3284995E3,2.6267966E2,1.6453556E1,7.614461E2,1.0677073E3,1.2607922E3,2.6738382E1,2.3594127E2,7.4962976E2,1.1816339E1,9.3344444E1,9.7436285E2,1.3554236E2,1.1252499E3,4.9329987E0,2.1805384E1,6.390797E2,1.1055003E2,6.9408624E2,2.8027655E2,1.18436554E2,1.7105797E1,2.487196E2,8.765303E2],"tree_param":{"num_deleted":"0","num_feature":"92","num_nodes":"29","size_leaf_vector":"0"}},{"base_weights":[2.5099164E-2,-2.8052375E-1,9.6785724E-2,-4.2328367E-1,4.316566E-1,4.5658594E-1,3.806614E-2,7.7693444E-1,-4.614393E-1,-5.865247E-1,7.4789053E-1,2.2177026E-1,8.495039E-1,-1.4428856E-2,3.917431E-1,-1.8399586E-1,-5.524258E-1,5.135878E-1,-6.91778E-1,8.551131E-1,-3.7169598E-2,-5.4425E-1,1.181004E-2,7.795749E-1,-1.0685194E-2,8.606402E-1,-4.7842014E-1,-5.6664634E-1,6.956626E-1,3.6936447E-1,-4.1882828E-1,-6.269985E-1,7.445133E-1,3.665765E-1,-7.510611E-2,7.512829E-1,-2.5549367E-1],"categories":[],"categories_nodes":[],"categories_segments":[],"categories_sizes":[],"default_left":[true,true,true,true,true,true,true,false,true,true,false,true,false,true,true,true,true,false,false,false,true,true,true,false,true,false,false,false,false,false,false,false,false,false,false,false,false],"id":20,"left_children":[1,3,5,7,9,11,13,-1,15,17,-1,19,-1,21,23,25,27,-1,-1,-1,29,31,33,-1,35,-1,-1,-1,-1,-1,-1,-1,-1,-1,-1,-1,-1],"loss_changes":[7.415059E1,6.556218E1,5.7896446E1,2.4912819E1,3.517205E1,3.5287323E1,4.3778923E1,0E0,1.3032211E1,3.3802671E0,0E0,3.972365E1,0E0,2.855997E1,4.757194E1,4.039153E1,7.339119E0,0E0,0E0,0E0,2.6958E1,1.0804823E1,6.0401943E1,0E0,2.8274376E1,0E0,0E0,0E0,0E0,0E0,0E0,0E0,0E0,0E0,0E0,0E0,0E0],"parents":[2147483647,0,0,1,1,2,2,3,3,4,4,5,5,6,6,8,8,9,9,11,11,13,13,14,14,15,15,16,16,20,20,21,21,22,22,24,24],"right_children":[2,4,6,8,10,12,14,-1,16,18,-1,20,-1,22,24,26,28,-1,-1,-1,30,32,34,-1,36,-1,-1,-1,-1,-1,-1,-1,-1,-1,-1,-1,-1],"split_conditions":[1.3726333E-1,5E-1,3.3687067E-1,9.9578625E-1,1.599113E-1,1.7857143E-1,9.305556E-1,3.8846724E-2,9.8933107E-1,1.5959848E-1,3.7394527E-2,3.611111E-1,4.2475194E-2,8.2894737E-1,9.901538E-1,1.19908206E-1,9.989395E-1,2.5679389E-2,-3.45889E-2,4.2755656E-2,1.6580608E-1,5.277778E-1,9.961375E-1,3.8978744E-2,9.0789473E-1,4.3032013E-2,-2.3921007E-2,-2.8332317E-2,3.4783132E-2,1.8468224E-2,-2.0941414E-2,-3.1349923E-2,3.7225664E-2,1.8328825E-2,-3.7553054E-3,3.7564144E-2,-1.2774684E-2],"split_indices":[47,15,48,62,48,47,39,0,33,48,0,19,0,42,33,47,62,0,0,0,47,19,62,0,42,0,0,0,0,0,0,0,0,0,0,0,0],"split_type":[0,0,0,0,0,0,0,0,0,0,0,0,0,0,0,0,0,0,0,0,0,0,0,0,0,0,0,0,0,0,0,0,0,0,0,0,0],"sum_hessian":[3.382233E3,6.420507E2,2.7401821E3,5.351775E2,1.0687319E2,3.8350516E2,2.356677E3,1.5892835E1,5.1928467E2,2.5124596E1,8.17486E1,2.4102698E2,1.4247818E2,2.0529277E3,3.0374945E2,1.2898756E2,3.9029712E2,1.8551309E0,2.3269464E1,6.9277725E1,1.7174925E2,9.5940254E1,1.9569874E3,1.5420268E2,1.4954677E2,2.7938137E1,1.0104942E2,3.8644006E2,3.857048E0,8.3180016E1,8.856924E1,9.063432E1,5.3059278E0,3.8447098E2,1.5725164E3,3.586083E1,1.1368593E2],"tree_param":{"num_deleted":"0","num_feature":"92","num_nodes":"37","size_leaf_vector":"0"}},{"base_weights":[2.932792E-3,-4.6655726E-1,4.5851875E-2,-5.677626E-1,7.1742266E-1,2.203549E-2,7.648581E-1,-6.1552066E-1,8.017855E-1,1.7517671E-1,-7.84829E-2,6.9143564E-1,-6.5036196E-1,7.9686034E-1,6.971335E-2,1.0343013E-1,-1.7509168E-1,-6.725261E-1,7.5066984E-1,-2.0452869E-1,3.6635265E-1,7.996473E-1,2.2759562E-2,-2.9983416E-1,2.0451072E-1],"categories":[],"categories_nodes":[],"categories_segments":[],"categories_sizes":[],"default_left":[true,true,true,true,false,true,false,true,false,true,true,false,true,false,true,true,true,false,false,false,false,false,false,false,false],"id":21,"left_children":[1,3,5,7,-1,9,-1,11,-1,13,15,-1,17,-1,19,21,23,-1,-1,-1,-1,-1,-1,-1,-1],"loss_changes":[7.020802E1,3.5377052E1,5.4649418E1,1.8115204E1,0E0,4.7595547E1,0E0,1.2330193E1,0E0,8.027452E1,3.2826515E1,0E0,8.412254E0,0E0,8.537928E1,3.638531E1,5.781568E1,0E0,0E0,0E0,0E0,0E0,0E0,0E0,0E0],"parents":[2147483647,0,0,1,1,2,2,3,3,5,5,7,7,9,9,10,10,12,12,14,14,15,15,16,16],"right_children":[2,4,6,8,-1,10,-1,12,-1,14,16,-1,18,-1,20,22,24,-1,-1,-1,-1,-1,-1,-1,-1],"split_conditions":[2.1291359E-1,5E-1,9.763602E-1,7.0238316E-1,3.5871133E-2,9.632305E-1,3.8242906E-2,9.9686193E-1,4.0089276E-2,9.9594915E-1,9.8877513E-1,3.457178E-2,9.90728E-1,3.984302E-2,9.556867E-1,8.8709676E-1,9.9105275E-1,-3.3626307E-2,3.753349E-2,-1.0226435E-2,1.8317632E-2,3.9982364E-2,1.1379782E-3,-1.4991708E-2,1.0225536E-2],"split_indices":[48,91,1,17,0,2,0,62,0,62,63,0,63,0,2,38,63,0,0,0,0,0,0,0,0],"split_type":[0,0,0,0,0,0,0,0,0,0,0,0,0,0,0,0,0,0,0,0,0,0,0,0,0],"sum_hessian":[3.482193E3,2.9083966E2,3.1913535E3,2.684162E2,2.2423471E1,3.09003E3,1.013236E2,2.5990356E2,8.512632E0,1.2242003E3,1.8658296E3,6.2593465E0,2.5364423E2,1.7660376E2,1.0475966E3,6.471619E2,1.2186677E3,2.5020596E2,3.4382615E0,5.445097E2,5.0308688E2,6.627463E1,5.808873E2,9.174059E2,3.0126178E2],"tree_param":{"num_deleted":"0","num_feature":"92","num_nodes":"25","size_leaf_vector":"0"}},{"base_weights":[-6.1367005E-2,7.8181034E-1,-8.387927E-2,-1.0395333E-1,7.543371E-1,1.65099E-2,-2.4495319E-1,-2.93945E-2,7.627761E-1,-3.3203843E-1,8.5992225E-2,-8.672525E-2,5.091614E-1,-9.701823E-2,-4.131853E-1,7.697542E-1,-2.4864975E-1],"categories":[],"categories_nodes":[],"categories_segments":[],"categories_sizes":[],"default_left":[true,false,true,true,false,true,true,true,false,true,true,false,false,false,false,false,false],"id":22,"left_children":[1,-1,3,5,-1,7,9,11,-1,13,15,-1,-1,-1,-1,-1,-1],"loss_changes":[7.047104E1,0E0,6.0881386E1,5.996059E1,0E0,6.526536E1,4.6901855E1,5.546996E1,0E0,2.4519379E1,7.789896E1,0E0,0E0,0E0,0E0,0E0,0E0],"parents":[2147483647,0,0,2,2,3,3,5,5,6,6,7,7,9,9,10,10],"right_children":[2,-1,4,6,-1,8,10,12,-1,14,16,-1,-1,-1,-1,-1,-1],"split_conditions":[6.2530804E-1,3.9090518E-2,9.763602E-1,9.891127E-1,3.7716854E-2,9.305556E-1,9.9132603E-1,9.5794785E-1,3.8138803E-2,9.643234E-1,9.71902E-1,-4.3362626E-3,2.5458071E-2,-4.8509114E-3,-2.0659266E-2,3.848771E-2,-1.2432488E-2],"split_indices":[18,0,1,63,0,69,63,1,0,2,2,0,0,0,0,0,0],"split_type":[0,0,0,0,0,0,0,0,0,0,0,0,0,0,0,0,0],"sum_hessian":[3.708097E3,9.5552E1,3.612545E3,3.5289087E3,8.363623E1,1.9035197E3,1.6253892E3,1.7941201E3,1.0939948E2,1.2867811E3,3.38608E2,1.6222645E3,1.7185555E2,3.3082645E2,9.559547E2,1.1083749E2,2.2777051E2],"tree_param":{"num_deleted":"0","num_feature":"92","num_nodes":"17","size_leaf_vector":"0"}},{"base_weights":[1.9866288E-2,-2.2557229E-1,2.0286036E-1,-3.0708176E-1,2.8750038E-1,-3.791953E-1,2.5533438E-1,3.075216E-1,-3.5030574E-1,-3.991892E-1,7.2858596E-1,6.955591E-1,-4.9285477E-1,5.844448E-1,1.8360133E-1,-4.4841868E-1,7.9090583E-1,-6.555557E-1,-2.914818E-1,7.264594E-1,-6.636942E-1,-5.80488E-1,7.6432526E-1,6.6320413E-1,-4.300392E-1,-4.5339397E-1,3.0226132E-1,6.87375E-1,-8.1490964E-1,7.3604494E-1,-6.965268E-1,-2.1597995E-1,-6.3202035E-1,5.5982876E-1,-7.255458E-1,7.0708334E-1,-6.4949477E-1,7.879989E-1,-4.922296E-2,-7.815119E-1,6.919934E-1,-5.5051845E-1,7.732506E-1,8.526195E-2,5.4641473E-1],"categories":[],"categories_nodes":[],"categories_segments":[],"categories_sizes":[],"default_left":[true,true,true,true,true,true,true,true,true,true,false,false,true,true,true,true,false,true,true,false,true,true,false,true,true,true,true,false,false,false,false,false,false,false,false,false,false,false,false,false,false,false,false,false,false],"id":23,"left_children":[1,3,5,7,9,11,13,15,17,19,-1,-1,21,23,25,27,-1,29,31,-1,33,35,-1,37,39,41,43,-1,-1,-1,-1,-1,-1,-1,-1,-1,-1,-1,-1,-1,-1,-1,-1,-1,-1],"loss_changes":[1.5198251E2,6.0534157E1,5.9303436E1,3.3254013E1,6.0462196E1,1.9974485E1,4.1886063E1,3.0506914E1,2.0749176E1,2.3808113E1,0E0,0E0,1.652034E1,2.5682404E1,1.1063659E2,1.422287E1,0E0,1.1210121E1,2.5049622E1,0E0,5.2464485E0,1.2630451E1,0E0,2.6298065E1,9.810728E0,2.7822762E1,6.5276276E1,0E0,0E0,0E0,0E0,0E0,0E0,0E0,0E0,0E0,0E0,0E0,0E0,0E0,0E0,0E0,0E0,0E0,0E0],"parents":[2147483647,0,0,1,1,2,2,3,3,4,4,5,5,6,6,7,7,8,8,9,9,12,12,13,13,14,14,15,15,17,17,18,18,20,20,21,21,23,23,24,24,25,25,26,26],"right_children":[2,4,6,8,10,12,14,16,18,20,-1,-1,22,24,26,28,-1,30,32,-1,34,36,-1,38,40,42,44,-1,-1,-1,-1,-1,-1,-1,-1,-1,-1,-1,-1,-1,-1,-1,-1,-1,-1],"split_conditions":[1.825875E-1,5E-1,8.552632E-1,9.960016E-1,9.208262E-2,9.741379E-1,9.9611455E-1,9.9442184E-1,7.788296E-2,8.706254E-2,3.6429297E-2,3.4777954E-2,5.277778E-1,9.80762E-1,9.962289E-1,9.9439776E-1,3.9545294E-2,9.6027803E-1,3.7876505E-1,3.632297E-2,9.7106624E-1,2.5086057E-1,3.8216263E-2,4.145152E-1,9.8097825E-1,4.5238096E-1,2.3909926E-1,3.436875E-2,-4.074548E-2,3.6802247E-2,-3.4826342E-2,-1.0798997E-2,-3.160102E-2,2.7991438E-2,-3.627729E-2,3.5354167E-2,-3.2474738E-2,3.9399948E-2,-2.4611482E-3,-3.9075594E-2,3.4599673E-2,-2.7525922E-2,3.866253E-2,4.2630974E-3,2.7320737E-2],"split_indices":[47,15,42,32,47,40,62,32,47,47,0,0,19,2,32,32,0,2,77,0,2,47,0,47,2,16,47,0,0,0,0,0,0,0,0,0,0,0,0,0,0,0,0,0,0],"split_type":[0,0,0,0,0,0,0,0,0,0,0,0,0,0,0,0,0,0,0,0,0,0,0,0,0,0,0,0,0,0,0,0,0,0,0,0,0,0,0,0,0,0,0,0,0],"sum_hessian":[3.3818525E3,1.4443726E3,1.9374799E3,1.2467144E3,1.976582E2,1.5970987E2,1.77777E3,8.151632E1,1.165198E3,7.7343506E1,1.20314705E2,1.478495E1,1.4492493E2,3.1686218E2,1.4609078E3,3.1822712E1,4.9693604E1,1.8662364E2,9.785744E2,1.4383869E1,6.2959633E1,1.3598424E2,8.940683E0,2.9435614E2,2.2506023E1,2.2896228E2,1.2319456E3,7.5497355E0,2.4272976E1,4.8521876E0,1.8177145E2,8.023231E2,1.7625128E2,2.6421702E0,6.0317463E1,6.4469233E0,1.2953732E2,2.503897E2,4.3966457E1,1.7368795E1,5.137228E0,2.1267415E2,1.628813E1,6.529574E2,5.7898816E2],"tree_param":{"num_deleted":"0","num_feature":"92","num_nodes":"45","size_leaf_vector":"0"}},{"base_weights":[4.5557905E-2,-1.3901585E-1,1.6213487E-1,-2.2492486E-1,4.2828614E-1,3.86959E-1,-1.3044611E-2,-7.367731E-2,-4.4586346E-1,-2.3078066E-1,7.2537196E-1,6.3678306E-1,2.4694288E-1,-5.504108E-2,7.6014286E-1,-6.820198E-1,-6.791597E-3,2.705421E-1,-5.172869E-1,7.0327693E-1,-5.868076E-1,-2.6426932E-1,7.740529E-1,4.2645127E-1,-3.9798266E-1,-1.9178763E-1,1.8399934E-1,-7.424311E-1,6.129763E-1,7.8085005E-1,-7.132326E-2,-6.30932E-1,8.449188E-1,7.6844233E-1,-5.4084545E-1,6.0557353E-1,-6.9811046E-1,7.1864116E-1,-9.1893774E-1,8.291718E-1,1.4989945E-1,8.0648685E-1,-7.7549434E-1,-5.0289017E-1,4.3019723E-2,-2.8298026E-1,8.071254E-1],"categories":[],"categories_nodes":[],"categories_segments":[],"categories_sizes":[],"default_left":[true,true,true,true,true,true,true,true,true,true,false,true,true,true,false,true,true,true,true,false,true,true,false,true,true,true,true,false,false,false,false,false,false,false,false,false,false,false,false,false,false,false,false,false,false,false,false],"id":24,"left_children":[1,3,5,7,9,11,13,15,17,19,-1,21,23,25,-1,27,29,31,33,-1,35,37,-1,39,41,43,45,-1,-1,-1,-1,-1,-1,-1,-1,-1,-1,-1,-1,-1,-1,-1,-1,-1,-1,-1,-1],"loss_changes":[6.9524605E1,6.106178E1,7.7993164E1,3.629282E1,3.244754E1,3.0178207E1,3.6212482E1,2.63012E1,2.2733627E1,1.7699705E1,0E0,3.8652252E1,6.469866E1,3.460205E1,0E0,5.464325E0,2.9712347E1,2.1600525E1,1.2588188E1,0E0,5.49016E0,2.758387E1,0E0,4.8491203E1,5.60449E1,4.9195213E1,1.12351494E2,0E0,0E0,0E0,0E0,0E0,0E0,0E0,0E0,0E0,0E0,0E0,0E0,0E0,0E0,0E0,0E0,0E0,0E0,0E0,0E0],"parents":[2147483647,0,0,1,1,2,2,3,3,4,4,5,5,6,6,7,7,8,8,9,9,11,11,12,12,13,13,15,15,16,16,17,17,18,18,20,20,21,21,23,23,24,24,25,25,26,26],"right_children":[2,4,6,8,10,12,14,16,18,20,-1,22,24,26,-1,28,30,32,34,-1,36,38,-1,40,42,44,46,-1,-1,-1,-1,-1,-1,-1,-1,-1,-1,-1,-1,-1,-1,-1,-1,-1,-1,-1,-1],"split_conditions":[1.825875E-1,5E-1,4.0352648E-1,9.900073E-1,9.208262E-2,9.741379E-1,6.082235E-1,9.8472536E-1,9.451235E-1,8.706254E-2,3.62686E-2,2.0985335E-1,9.027778E-1,9.8797363E-1,3.8007144E-2,9.968554E-1,9.9578625E-1,5.636833E-2,5.137876E-1,3.5163846E-2,1.496006E-1,2.0878173E-1,3.8702648E-2,9.4740427E-1,9.887382E-1,2.3737809E-1,9.962331E-1,-3.7121557E-2,3.0648816E-2,3.9042503E-2,-3.5661631E-3,-3.15466E-2,4.224594E-2,3.842212E-2,-2.7042273E-2,3.0278677E-2,-3.4905523E-2,3.593206E-2,-4.594689E-2,4.1458588E-2,7.4949726E-3,4.032434E-2,-3.8774718E-2,-2.5144508E-2,2.150986E-3,-1.4149013E-2,4.035627E-2],"split_indices":[47,91,78,63,47,70,78,63,1,47,0,78,69,63,0,32,62,47,17,0,78,78,0,1,63,47,32,0,0,0,0,0,0,0,0,0,0,0,0,0,0,0,0,0,0,0,0],"split_type":[0,0,0,0,0,0,0,0,0,0,0,0,0,0,0,0,0,0,0,0,0,0,0,0,0,0,0,0,0,0,0,0,0,0,0,0,0,0,0,0,0,0,0,0,0,0,0],"sum_hessian":[3.229093E3,1.2499237E3,1.9791693E3,1.0860603E3,1.6386333E2,8.6623737E2,1.1129319E3,6.45503E2,4.4055734E2,5.0983257E1,1.1288006E2,3.0984598E2,5.5639136E2,1.056477E3,5.645482E1,6.303023E1,5.824728E2,3.968756E1,4.0086978E2,1.3800775E1,3.7182484E1,4.084041E1,2.6900558E2,4.355103E2,1.2088105E2,6.7215735E2,3.8431973E2,6.0628613E1,2.4016182E0,4.3267742E1,5.39205E2,1.5407422E1,2.4280138E1,6.644082E0,3.942257E2,2.7953436E0,3.4387142E1,1.628804E1,2.4552366E1,1.7649556E2,2.5901477E2,2.857495E1,9.23061E1,2.8861798E2,3.8353937E2,2.1999683E2,1.643229E2],"tree_param":{"num_deleted":"0","num_feature":"92","num_nodes":"47","size_leaf_vector":"0"}},{"base_weights":[-4.1865343E-3,-1.7793916E-1,1.1881734E-1,-2.0758827E-1,7.837431E-1,-3.4917104E-1,1.8024151E-1,-6.4320033E-3,-3.664538E-1,-4.9684432E-1,7.3740685E-1,3.239754E-1,1.4157027E-2,3.87897E-1,-3.0047518E-1,7.4594104E-1,-4.0464836E-1,7.251523E-1,-5.807971E-1,2.5322565E-1,7.716452E-1,-4.4101545E-1,1.8920596E-1,-6.7887944E-1,5.254762E-1,-4.3469778E-1,7.592417E-1,-4.257669E-1,7.5465E-1,-4.789982E-2,-7.194285E-1,1.484674E-1,6.199906E-1,-5.810597E-1,7.811038E-1,2.434997E-2,6.2052834E-1],"categories":[],"categories_nodes":[],"categories_segments":[],"categories_sizes":[],"default_left":[true,true,true,true,false,true,true,true,true,true,false,true,true,true,true,false,true,false,true,true,false,true,true,false,false,false,false,false,false,false,false,false,false,false,false,false,false],"id":25,"left_children":[1,3,5,7,-1,9,11,13,15,17,-1,19,21,23,25,-1,27,-1,29,31,-1,33,35,-1,-1,-1,-1,-1,-1,-1,-1,-1,-1,-1,-1,-1,-1],"loss_changes":[7.306744E1,4.056746E1,5.7604767E1,4.3953323E1,0E0,3.7687386E1,4.2252563E1,7.061022E1,3.2953644E1,2.1488914E1,0E0,2.9858139E1,6.560015E1,3.8535656E1,4.9947372E1,0E0,1.8527618E1,0E0,1.4202423E1,3.1447353E1,0E0,3.95949E1,4.22632E1,0E0,0E0,0E0,0E0,0E0,0E0,0E0,0E0,0E0,0E0,0E0,0E0,0E0,0E0],"parents":[2147483647,0,0,1,1,2,2,3,3,5,5,6,6,7,7,8,8,9,9,11,11,12,12,13,13,14,14,16,16,18,18,19,19,21,21,22,22],"right_children":[2,4,6,8,-1,10,12,14,16,18,-1,20,22,24,26,-1,28,-1,30,32,-1,34,36,-1,-1,-1,-1,-1,-1,-1,-1,-1,-1,-1,-1,-1,-1],"split_conditions":[3.5094064E-1,8.062444E-1,9.375E-1,7.2372556E-1,3.9187156E-2,9.9741733E-1,4.166667E-1,9.979929E-1,9.957273E-1,4.7398964E-1,3.687034E-2,9.9786997E-1,4.047619E-1,9.9445796E-1,9.3421054E-1,3.729705E-2,9.9895006E-1,3.6257617E-2,9.492054E-1,3.611111E-1,3.858226E-2,9.6579605E-1,9.884057E-1,-3.3943973E-2,2.6273811E-2,-2.173489E-2,3.7962086E-2,-2.1288345E-2,3.77325E-2,-2.394991E-3,-3.5971425E-2,7.4233706E-3,3.099953E-2,-2.9052986E-2,3.905519E-2,1.2174986E-3,3.1026417E-2],"split_indices":[48,18,67,18,0,32,19,32,32,48,0,32,16,32,72,0,32,0,2,19,0,2,33,0,0,0,0,0,0,0,0,0,0,0,0,0,0],"split_type":[0,0,0,0,0,0,0,0,0,0,0,0,0,0,0,0,0,0,0,0,0,0,0,0,0,0,0,0,0,0,0,0,0,0,0,0,0],"sum_hessian":[3.4168108E3,1.4160635E3,2.0007474E3,1.3744719E3,4.1591473E1,2.3158974E2,1.7691577E3,6.069674E2,7.675046E2,2.0435875E2,2.7230991E1,9.4788354E2,8.212741E2,2.591342E2,3.4783322E2,2.4862713E1,7.4264185E2,1.2646187E1,1.9171255E2,8.19876E2,1.280076E2,2.276933E2,5.935808E2,2.9152666E1,2.2998152E2,3.0925333E2,3.85799E1,7.2997687E2,1.2664976E1,3.9855198E1,1.5185736E2,6.3881696E2,1.8105904E2,2.0475475E2,2.2938564E1,4.3020743E2,1.633734E2],"tree_param":{"num_deleted":"0","num_feature":"92","num_nodes":"37","size_leaf_vector":"0"}},{"base_weights":[-1.7989928E-2,-3.088873E-1,6.0709316E-2,-4.1208747E-1,2.572777E-1,1.5015888E-1,-1.7401153E-1,-1.3979097E-2,-5.35312E-1,-2.951906E-1,7.137405E-1,1.23554E-1,7.696292E-1,-3.5096487E-1,2.056337E-1,8.327468E-1,-3.7130257E-1,-5.523178E-1,6.5626985E-1,8.0590993E-1,-6.4145637E-1,1.9671175E-1,-4.538594E-2,1.2761297E-3,-5.743664E-1,-4.6115607E-1,4.0936205E-1,7.7623487E-1,-5.634568E-1,7.2361314E-1,-5.660794E-1,-7.428566E-1,5.687521E-1,9.842684E-2,7.6822174E-1,4.9868143E-1,-2.832826E-1,-6.7180157E-1,4.223784E-1,-6.3642055E-1,7.1574557E-1,7.2867006E-1,-7.90401E-1,-7.6559025E-1,6.04058E-1],"categories":[],"categories_nodes":[],"categories_segments":[],"categories_sizes":[],"default_left":[true,true,true,true,true,true,true,true,true,true,false,true,false,true,true,false,true,true,false,false,true,true,true,true,true,true,true,false,false,false,false,false,false,false,false,false,false,false,false,false,false,false,false,false,false],"id":26,"left_children":[1,3,5,7,9,11,13,15,17,19,-1,21,-1,23,25,-1,27,29,-1,-1,31,33,35,37,39,41,43,-1,-1,-1,-1,-1,-1,-1,-1,-1,-1,-1,-1,-1,-1,-1,-1,-1,-1],"loss_changes":[7.8132095E1,4.2565933E1,5.6427765E1,3.0164612E1,2.862032E1,3.1970688E1,4.9900322E1,4.460373E1,9.879227E0,2.0219383E1,0E0,2.3079973E1,0E0,3.9840504E1,3.2307247E1,0E0,2.3291714E1,8.54953E0,0E0,0E0,5.315092E0,7.310388E1,7.3256935E1,5.6256516E1,2.5257103E1,2.2436733E1,4.2012497E1,0E0,0E0,0E0,0E0,0E0,0E0,0E0,0E0,0E0,0E0,0E0,0E0,0E0,0E0,0E0,0E0,0E0,0E0],"parents":[2147483647,0,0,1,1,2,2,3,3,4,4,5,5,6,6,7,7,8,8,9,9,11,11,13,13,14,14,16,16,17,17,20,20,21,21,22,22,23,23,24,24,25,25,26,26],"right_children":[2,4,6,8,10,12,14,16,18,20,-1,22,-1,24,26,-1,28,30,-1,-1,32,34,36,38,40,42,44,-1,-1,-1,-1,-1,-1,-1,-1,-1,-1,-1,-1,-1,-1,-1,-1,-1,-1],"split_conditions":[1.3726333E-1,9.910706E-1,4.8059738E-1,9.8917127E-1,9.7540987E-1,4.5866573E-1,9.9679387E-1,3.4985477E-1,9.988522E-1,9.7190344E-1,3.5687026E-2,2.8528398E-1,3.848146E-2,9.96114E-1,9.980469E-1,4.1637342E-2,1.2005164E-1,9.965156E-1,3.2813493E-2,4.0295497E-2,9.759147E-1,2.4254158E-1,9.741379E-1,8.2894737E-1,5.7571435E-1,9.9829364E-1,9.793144E-1,3.8811743E-2,-2.817284E-2,3.6180656E-2,-2.830397E-2,-3.714283E-2,2.8437605E-2,4.9213422E-3,3.841109E-2,2.4934072E-2,-1.416413E-2,-3.359008E-2,2.111892E-2,-3.1821027E-2,3.578728E-2,3.6433503E-2,-3.952005E-2,-3.8279515E-2,3.0202901E-2],"split_indices":[47,63,78,63,64,78,62,78,62,2,0,47,0,62,21,0,47,62,0,0,2,47,40,42,78,62,63,0,0,0,0,0,0,0,0,0,0,0,0,0,0,0,0,0,0],"split_type":[0,0,0,0,0,0,0,0,0,0,0,0,0,0,0,0,0,0,0,0,0,0,0,0,0,0,0,0,0,0,0,0,0,0,0,0,0,0,0,0,0,0,0,0,0],"sum_hessian":[3.411046E3,7.2570074E2,2.6853452E3,6.1404517E2,1.116556E2,1.9446285E3,7.4071655E2,1.4540157E2,4.686436E2,5.067532E1,6.0980286E1,1.8657003E3,7.892826E1,5.0528012E2,2.3543646E2,4.2755695E1,1.0264587E2,4.6257834E2,6.0652537E0,1.1805916E1,3.8869404E1,1.3018031E3,5.6389716E2,1.9648038E2,3.0879974E2,5.4803745E1,1.8063272E2,1.4286685E1,8.8359184E1,4.3855214E0,4.581928E2,3.6220737E1,2.6486678E0,1.1117783E3,1.9002483E2,1.7122076E2,3.926764E2,7.538763E1,1.2109274E2,2.951116E2,1.368813E1,1.1615276E1,4.318847E1,2.526019E1,1.5537253E2],"tree_param":{"num_deleted":"0","num_feature":"92","num_nodes":"45","size_leaf_vector":"0"}},{"base_weights":[3.3127791E-3,-3.597458E-1,5.7450972E-2,-4.4088402E-1,7.0748216E-1,9.935589E-2,-3.4865606E-1,-4.9851406E-1,1.6598238E-1,6.474985E-1,5.0645005E-2,2.3457648E-1,-5.385911E-1,7.255016E-1,-5.1599973E-1,-4.8629162E-1,7.4091166E-1,2.6349625E-1,7.590267E-1,3.747763E-1,-4.132554E-3,7.5907516E-1,-5.3811246E-1,7.076696E-1,-5.960156E-1,-1.463835E-1,-5.6815416E-1,4.4077113E-1,-6.273654E-1,7.4297327E-1,-7.9173213E-1,-4.5302925E-3,6.6517276E-1,-5.057804E-2,3.4272859E-1,6.6693115E-1,-8.98406E-1,6.898185E-1,-6.36516E-1],"categories":[],"categories_nodes":[],"categories_segments":[],"categories_sizes":[],"default_left":[true,true,true,true,false,true,true,true,true,true,true,true,true,false,true,true,false,true,false,true,true,false,true,false,true,false,false,false,false,false,false,false,false,false,false,false,false,false,false],"id":27,"left_children":[1,3,5,7,-1,9,11,13,15,17,19,21,23,-1,25,27,-1,29,-1,31,33,-1,35,-1,37,-1,-1,-1,-1,-1,-1,-1,-1,-1,-1,-1,-1,-1,-1],"loss_changes":[6.6101524E1,3.8101982E1,4.9838665E1,1.4288788E1,0E0,7.0819984E1,3.0474533E1,8.319359E0,1.385252E1,9.071365E0,4.329079E1,2.7965895E1,1.5233227E1,0E0,6.9832306E0,2.5598931E0,0E0,2.6015339E1,0E0,3.8828724E1,3.3633457E1,0E0,1.2790107E1,0E0,1.0770538E1,0E0,0E0,0E0,0E0,0E0,0E0,0E0,0E0,0E0,0E0,0E0,0E0,0E0,0E0],"parents":[2147483647,0,0,1,1,2,2,3,3,5,5,6,6,7,7,8,8,9,9,10,10,11,11,12,12,14,14,15,15,17,17,19,19,20,20,22,22,24,24],"right_children":[2,4,6,8,-1,10,12,14,16,18,20,22,24,-1,26,28,-1,30,-1,32,34,-1,36,-1,38,-1,-1,-1,-1,-1,-1,-1,-1,-1,-1,-1,-1,-1,-1],"split_conditions":[2.4351533E-1,9.9132216E-1,9.913793E-1,5E-1,3.537411E-2,9.955912E-1,9.8785925E-1,2.7861446E-2,2.5E-1,3.1611514E-1,2.8009865E-1,6.101137E-1,3.0555558E-1,3.627508E-2,9.97013E-1,9.703214E-1,3.7045583E-2,3.1458968E-1,3.7951335E-2,2.0926586E-1,4.2394578E-1,3.795376E-2,9.7540987E-1,3.538348E-2,3.5483348E-1,-7.3191747E-3,-2.8407708E-2,2.2038557E-2,-3.136827E-2,3.7148666E-2,-3.9586607E-2,-2.2651463E-4,3.325864E-2,-2.528902E-3,1.713643E-2,3.334656E-2,-4.4920303E-2,3.4490924E-2,-3.18258E-2],"split_indices":[48,33,40,15,0,32,33,77,19,78,78,48,19,0,32,2,0,78,0,78,77,0,34,0,48,0,0,0,0,0,0,0,0,0,0,0,0,0,0],"split_type":[0,0,0,0,0,0,0,0,0,0,0,0,0,0,0,0,0,0,0,0,0,0,0,0,0,0,0,0,0,0,0,0,0,0,0,0,0,0,0],"sum_hessian":[3.3609805E3,4.3541037E2,2.92557E3,4.0519174E2,3.0218645E1,2.6526108E3,2.729593E2,3.7021356E2,3.497816E1,2.1548376E2,2.437127E3,6.699697E1,2.0596233E2,4.6439176E0,3.6556964E2,1.6459055E1,1.8519106E1,4.925539E1,1.6622838E2,3.514826E2,2.0856445E3,3.991823E1,2.7078741E1,8.573416E0,1.973889E2,4.5675533E1,3.1989413E2,1.8932443E0,1.456581E1,3.4070343E1,1.5185046E1,1.5283664E2,1.9864597E2,1.8401045E3,2.4553993E2,6.0368195E0,2.1041922E1,5.5378275E0,1.9185107E2],"tree_param":{"num_deleted":"0","num_feature":"92","num_nodes":"39","size_leaf_vector":"0"}},{"base_weights":[-7.6019857E-3,-2.3282255E-1,1.1085358E-1,-3.2832515E-1,4.409968E-1,-3.4968936E-1,1.661088E-1,7.437248E-1,-3.5479185E-1,7.390933E-1,-3.3438963E-1,-4.972899E-1,7.3211324E-1,1.348403E-1,7.43441E-1,7.391955E-1,-3.7160635E-1,8.477606E-1,6.874363E-1,-6.276543E-1,6.195245E-1,4.3648455E-2,-6.651318E-1,4.2095414E-1,6.381434E-2,-6.186195E-1,-3.1064042E-1,5.3975725E-1,-7.204912E-1,-7.5168383E-1,7.395074E-1,6.64563E-1,-7.1972334E-1,-5.0005156E-1,5.6266046E-1,-1.1954188E-1,1.9086762E-1],"categories":[],"categories_nodes":[],"categories_segments":[],"categories_sizes":[],"default_left":[true,true,true,true,true,true,true,false,true,true,true,true,false,true,false,false,true,false,false,true,false,true,true,true,true,false,false,false,false,false,false,false,false,false,false,false,false],"id":28,"left_children":[1,3,5,7,9,11,13,-1,15,17,19,21,-1,23,-1,-1,25,-1,-1,27,-1,29,31,33,35,-1,-1,-1,-1,-1,-1,-1,-1,-1,-1,-1,-1],"loss_changes":[8.932442E1,7.4406906E1,5.589447E1,2.8958778E1,3.3458195E1,3.794764E1,3.52789E1,0E0,1.8442078E1,1.5525818E-3,1.17433605E1,1.8887688E1,0E0,3.7778122E1,0E0,0E0,1.4465897E1,0E0,0E0,3.8072577E0,0E0,2.8297308E1,1.1990143E1,4.854429E1,3.4769917E1,0E0,0E0,0E0,0E0,0E0,0E0,0E0,0E0,0E0,0E0,0E0,0E0],"parents":[2147483647,0,0,1,1,2,2,3,3,4,4,5,5,6,6,8,8,9,9,10,10,11,11,13,13,16,16,19,19,21,21,22,22,23,23,24,24],"right_children":[2,4,6,8,10,12,14,-1,16,18,20,22,-1,24,-1,-1,26,-1,-1,28,-1,30,32,34,36,-1,-1,-1,-1,-1,-1,-1,-1,-1,-1,-1,-1],"split_conditions":[1.676707E-1,9.662402E-1,9.375E-1,9.1487825E-1,9.305556E-1,9.974381E-1,9.714547E-1,3.7186243E-2,4.9960423E-1,5E-1,9.9133873E-1,9.491451E-1,3.6605664E-2,9.9611455E-1,3.717205E-2,3.695978E-2,9.30997E-1,4.2388033E-2,3.4371816E-2,9.906705E-1,3.0976225E-2,9.9308586E-1,9.1130084E-1,8.2894737E-1,9.8714656E-1,-3.0930975E-2,-1.5532021E-2,2.6987864E-2,-3.602456E-2,-3.7584193E-2,3.697537E-2,3.322815E-2,-3.5986166E-2,-2.5002578E-2,2.8133024E-2,-5.977094E-3,9.543381E-3],"split_indices":[47,1,37,1,39,62,1,0,17,15,63,2,0,62,0,0,1,0,0,63,0,62,1,42,63,0,0,0,0,0,0,0,0,0,0,0,0],"split_type":[0,0,0,0,0,0,0,0,0,0,0,0,0,0,0,0,0,0,0,0,0,0,0,0,0,0,0,0,0,0,0,0,0,0,0,0,0],"sum_hessian":[3.346196E3,1.1530076E3,2.1931885E3,1.01032385E3,1.4268372E2,2.343759E2,1.9588126E3,2.3688915E1,9.8663495E2,1.0309555E2,3.958817E1,2.0671248E2,2.766342E1,1.8593435E3,9.9469086E1,1.4284633E1,9.723503E2,2.8252111E1,7.4843445E1,3.0540907E1,9.047261E0,4.9125538E1,1.5758694E2,3.68796E2,1.4905475E3,1.9067065E2,7.816796E2,1.8951833E0,2.8645725E1,2.2886816E1,2.6238724E1,5.774051E0,1.518129E2,4.8839546E1,3.1995642E2,6.101181E2,8.8042944E2],"tree_param":{"num_deleted":"0","num_feature":"92","num_nodes":"37","size_leaf_vector":"0"}},{"base_weights":[4.0033706E-3,-3.3276137E-2,3.1051245E-1,5.678956E-2,-1.4385942E-1,5.9959567E-1,-6.413114E-2,3.1877348E-1,-1.16562985E-1,4.2401707E-1,-1.7701939E-1,7.4138576E-1,-9.1168314E-2,-2.655268E-1,7.2337914E-1,5.7510334E-1,-1.4417006E-1,2.8875482E-1,-2.2116598E-1,-3.0599827E-1,7.686892E-1,-5.0416726E-1,-1.3701504E-1,-6.208292E-1,6.7129326E-1,-4.136187E-1,6.8395716E-1,7.1913826E-1,2.4135117E-1,-4.744712E-1,4.110547E-1,7.9195476E-1,-1.762068E-1,-3.2826027E-1,3.0227372E-1,7.18987E-1,-6.372412E-1,-5.890977E-1,7.122905E-1,-1.996361E-1,4.9158493E-1,3.863809E-1,-7.0197177E-1,-5.389965E-1,6.7813164E-1],"categories":[],"categories_nodes":[],"categories_segments":[],"categories_sizes":[],"default_left":[true,true,true,true,true,true,true,true,true,true,true,false,true,true,false,true,true,true,true,true,false,true,true,true,false,true,false,false,false,false,false,false,false,false,false,false,false,false,false,false,false,false,false,false,false],"id":29,"left_children":[1,3,5,7,9,11,13,15,17,19,21,-1,23,25,-1,27,29,31,33,35,-1,37,39,41,-1,43,-1,-1,-1,-1,-1,-1,-1,-1,-1,-1,-1,-1,-1,-1,-1,-1,-1,-1,-1],"loss_changes":[3.7337605E1,2.902488E1,3.841371E1,7.2991394E1,2.4706152E1,1.9666153E1,2.481189E1,7.6021034E1,4.1080868E1,1.8467289E1,1.6114246E1,0E0,1.4538904E1,1.7767708E1,0E0,1.9635773E1,4.2164814E1,4.6673653E1,4.3238182E1,8.591179E0,0E0,1.4301014E1,4.3524185E1,2.0001154E0,0E0,1.5175253E1,0E0,0E0,0E0,0E0,0E0,0E0,0E0,0E0,0E0,0E0,0E0,0E0,0E0,0E0,0E0,0E0,0E0,0E0,0E0],"parents":[2147483647,0,0,1,1,2,2,3,3,4,4,5,5,6,6,7,7,8,8,9,9,10,10,12,12,13,13,15,15,16,16,17,17,18,18,19,19,21,21,22,22,23,23,25,25],"right_children":[2,4,6,8,10,12,14,16,18,20,22,-1,24,26,-1,28,30,32,34,36,-1,38,40,42,-1,44,-1,-1,-1,-1,-1,-1,-1,-1,-1,-1,-1,-1,-1,-1,-1,-1,-1,-1,-1],"split_conditions":[9.305556E-1,8.6764705E-1,9.704194E-1,9.662092E-1,2.785076E-1,1.6666667E-1,4.042325E-1,4.2761147E-1,9.971807E-1,1.9070035E-1,2.9796064E-1,3.7069287E-2,5.3463854E-2,9.7716606E-1,3.616896E-2,9.7540987E-1,3E-1,9.7362924E-1,9.7302854E-1,1.8676184E-1,3.843446E-2,9.665862E-1,9.9765444E-1,9.644464E-1,3.3564664E-2,9.978961E-1,3.419786E-2,3.5956915E-2,1.2067559E-2,-2.3723561E-2,2.0552736E-2,3.959774E-2,-8.81034E-3,-1.6413014E-2,1.5113686E-2,3.594935E-2,-3.186206E-2,-2.9454885E-2,3.5614528E-2,-9.981805E-3,2.4579247E-2,1.9319046E-2,-3.509859E-2,-2.6949827E-2,3.3906583E-2],"split_indices":[39,41,2,2,78,22,78,78,62,78,78,0,77,2,0,64,20,2,2,78,0,2,62,2,0,62,0,0,0,0,0,0,0,0,0,0,0,0,0,0,0,0,0,0,0],"split_type":[0,0,0,0,0,0,0,0,0,0,0,0,0,0,0,0,0,0,0,0,0,0,0,0,0,0,0,0,0,0,0,0,0,0,0,0,0,0,0,0,0,0,0,0,0],"sum_hessian":[3.2657263E3,2.9123945E3,3.5333176E2,1.6053705E3,1.307024E3,1.9910078E2,1.5423099E2,6.3893024E2,9.664402E2,7.145991E1,1.2355641E3,1.6513165E2,3.3969128E1,1.23348915E2,3.0882076E1,4.110766E2,2.2785362E2,1.9789034E2,7.6854987E2,2.2954502E1,4.850541E1,1.3336092E2,1.1022032E3,2.015427E1,1.3814857E1,1.07194115E2,1.6154793E1,2.8634576E2,1.2473085E2,1.4295541E2,8.489821E1,9.46995E1,1.03190834E2,6.3832355E2,1.302263E2,5.320471E0,1.7634031E1,1.2513966E2,8.221252E0,1.00296985E3,9.923334E1,1.2221494E0,1.8932121E1,9.660607E1,1.0588044E1],"tree_param":{"num_deleted":"0","num_feature":"92","num_nodes":"45","size_leaf_vector":"0"}},{"base_weights":[9.76217E-3,1.8222505E-1,-8.73037E-2,7.139835E-1,1.1554868E-1,2.4411174E-2,-2.551182E-1,4.0835552E-2,5.351769E-1,2.2014251E-1,-1.4890179E-1,-3.3724207E-1,8.752044E-2,7.183393E-1,-7.777968E-3,7.2979975E-1,-4.5138815E-1,-7.258597E-2,4.994608E-1,-2.78959E-1,3.254546E-1,-3.6087665E-1,7.832858E-1,-6.3513654E-1,2.917548E-1,-6.847467E-2,4.4394425E-1,-7.850627E-1,6.2405425E-1,-2.0629528E-1,7.607237E-1,6.652084E-1,-6.927625E-2,7.819878E-1,-3.2260776E-1,5.421857E-1,-6.613945E-1,7.243168E-1,-3.7600085E-1,5.337617E-1,-7.411936E-1,-6.400053E-1,4.794143E-1],"categories":[],"categories_nodes":[],"categories_segments":[],"categories_sizes":[],"default_left":[true,true,true,false,true,true,true,true,true,true,true,true,true,false,true,false,true,true,true,true,true,true,false,true,true,false,false,false,false,false,false,false,false,false,false,false,false,false,false,false,false,false,false],"id":30,"left_children":[1,3,5,-1,7,9,11,13,15,17,19,21,23,-1,25,-1,27,29,31,33,35,37,-1,39,41,-1,-1,-1,-1,-1,-1,-1,-1,-1,-1,-1,-1,-1,-1,-1,-1,-1,-1],"loss_changes":[5.3911022E1,4.1037804E1,3.863943E1,0E0,3.2324966E1,4.20313E1,2.3206425E1,2.8886644E1,3.0254108E1,4.760927E1,4.0637722E1,1.7883987E1,2.3806068E1,0E0,2.2490444E1,0E0,9.926628E0,3.1908484E1,2.8124565E1,2.4163826E1,3.0704926E1,1.0966492E1,0E0,4.8063297E0,2.2244446E1,0E0,0E0,0E0,0E0,0E0,0E0,0E0,0E0,0E0,0E0,0E0,0E0,0E0,0E0,0E0,0E0,0E0,0E0],"parents":[2147483647,0,0,1,1,2,2,4,4,5,5,6,6,7,7,8,8,9,9,10,10,11,11,12,12,14,14,16,16,17,17,18,18,19,19,20,20,21,21,23,23,24,24],"right_children":[2,4,6,-1,8,10,12,14,16,18,20,22,24,-1,26,-1,28,30,32,34,36,38,-1,40,42,-1,-1,-1,-1,-1,-1,-1,-1,-1,-1,-1,-1,-1,-1,-1,-1,-1,-1],"split_conditions":[9.741379E-1,9.96112E-1,9.891127E-1,3.5699174E-2,9.981709E-1,4.166667E-1,5E-1,6.4500374E-1,9.9927276E-1,9.9654245E-1,1.5888554E-1,8.132266E-1,9.7540987E-1,3.5916965E-2,4.0436748E-1,3.648999E-2,9.980469E-1,3.611111E-1,9.886349E-1,4.141566E-2,5.2861446E-1,4.9459743E-1,3.916429E-2,9.975196E-1,9.892393E-1,-3.4237336E-3,2.2197213E-2,-3.9253134E-2,3.1202713E-2,-1.0314764E-2,3.8036186E-2,3.326042E-2,-3.4638126E-3,3.909939E-2,-1.6130388E-2,2.7109286E-2,-3.3069726E-2,3.6215838E-2,-1.8800043E-2,2.6688084E-2,-3.705968E-2,-3.2000266E-2,2.3970716E-2],"split_indices":[40,62,63,0,62,19,91,18,62,62,77,18,34,0,77,0,21,19,63,77,77,17,0,62,63,0,0,0,0,0,0,0,0,0,0,0,0,0,0,0,0,0,0],"split_type":[0,0,0,0,0,0,0,0,0,0,0,0,0,0,0,0,0,0,0,0,0,0,0,0,0,0,0,0,0,0,0,0,0,0,0,0,0,0,0,0,0,0,0],"sum_hessian":[3.218491E3,1.158765E3,2.059726E3,1.2802553E2,1.0307395E3,1.2370624E3,8.226636E2,8.7588837E2,1.548511E2,5.808303E2,6.562321E2,6.6362195E2,1.5904161E2,5.7718346E1,8.1817E2,1.2955386E2,2.5297247E1,2.8396848E2,2.9686182E2,5.153479E2,1.4088422E2,6.5057764E2,1.3044277E1,3.4578876E1,1.2446274E2,7.220046E2,9.6165405E1,1.951301E1,5.7842374E0,2.4535268E2,3.8615803E1,2.297391E2,6.712272E1,1.969585E1,4.9565204E2,1.1588436E2,2.4999855E1,8.297864E0,6.422798E2,2.5409746E0,3.2037903E1,2.0460844E1,1.0400189E2],"tree_param":{"num_deleted":"0","num_feature":"92","num_nodes":"43","size_leaf_vector":"0"}},{"base_weights":[-1.4394272E-2,-4.6702316E-1,3.7092995E-2,-5.149319E-1,6.530451E-1,7.566771E-1,1.840574E-2,6.772444E-1,-5.515281E-1,-5.732528E-1,4.218071E-2,-5.7909894E-1,7.206493E-1,6.6340184E-1,-6.406112E-1,6.151183E-1,1.406376E-2,-5.9386456E-1,6.358537E-1,-6.753523E-1,5.064129E-1,-2.0035242E-3,8.0369806E-1,-9.026664E-2,1.5354082E-1],"categories":[],"categories_nodes":[],"categories_segments":[],"categories_sizes":[],"default_left":[true,true,true,true,false,false,true,false,true,true,true,true,false,false,true,true,true,false,false,false,false,false,false,false,false],"id":31,"left_children":[1,3,5,7,-1,-1,9,-1,11,13,15,17,-1,-1,19,21,23,-1,-1,-1,-1,-1,-1,-1,-1],"loss_changes":[7.7118324E1,1.847226E1,3.9943005E1,1.4538528E1,0E0,0E0,4.0778652E1,0E0,1.148526E1,9.753845E0,4.4875698E1,5.928299E0,0E0,0E0,4.594528E0,1.5167286E1,3.8676704E1,0E0,0E0,0E0,0E0,0E0,0E0,0E0,0E0],"parents":[2147483647,0,0,1,1,2,2,3,3,6,6,8,8,9,9,10,10,11,11,14,14,15,15,16,16],"right_children":[2,4,6,8,-1,-1,10,-1,12,14,16,18,-1,-1,20,22,24,-1,-1,-1,-1,-1,-1,-1,-1],"split_conditions":[2.1292877E-1,9.9132216E-1,2.936747E-2,9.970126E-1,3.2652255E-2,3.7833855E-2,9.165233E-2,3.3862222E-2,1.5461847E-1,9.894824E-1,2.7622902E-1,7.50828E-1,3.6032464E-2,3.3170093E-2,9.7540987E-1,5.423256E-1,2.3909926E-1,-2.969323E-2,3.1792685E-2,-3.3767615E-2,2.5320647E-2,-1.00176214E-4,4.0184904E-2,-4.513332E-3,7.677041E-3],"split_indices":[48,33,77,32,0,0,47,0,47,33,48,17,0,0,64,17,47,0,0,0,0,0,0,0,0],"split_type":[0,0,0,0,0,0,0,0,0,0,0,0,0,0,0,0,0,0,0,0,0,0,0,0,0],"sum_hessian":[3.3073992E3,3.3697278E2,2.9704265E3,3.2366873E2,1.330404E1,7.418835E1,2.896238E3,9.118365E0,3.1455035E2,1.1099248E2,2.7852456E3,3.0841122E2,6.1391435E0,5.276197E0,1.0571628E2,1.293154E2,2.6559302E3,3.052131E2,3.1981244E0,1.030076E2,2.7086816E0,3.0498688E1,9.88167E1,1.519603E3,1.1363271E3],"tree_param":{"num_deleted":"0","num_feature":"92","num_nodes":"25","size_leaf_vector":"0"}},{"base_weights":[5.90014E-3,-3.4567043E-1,5.733434E-2,-4.440895E-1,2.0196259E-1,1.5912065E-1,-7.049225E-2,9.4199827E-4,-5.034159E-1,-5.28795E-1,6.867454E-1,3.7709656E-1,4.6096627E-2,2.6997915E-1,-1.5346847E-1,7.3772025E-1,-7.3276746E-1,-5.196446E-1,5.9696853E-1,5.2126604E-1,-7.117703E-1,1.907201E-1,7.779864E-1,-1.6405302E-1,3.5713923E-1,7.3742616E-1,1.7481636E-2,-5.61955E-1,-7.1798235E-2,7.0826924E-1,-5.336018E-1,-7.268326E-3,7.905938E-1,-2.2646359E-1,7.8178835E-1,7.994802E-1,1.473945E-1,7.219004E-1,-1.8551181E-1,-6.6209203E-1,7.270144E-1,-1.2272259E-1,7.485612E-1],"categories":[],"categories_nodes":[],"categories_segments":[],"categories_sizes":[],"default_left":[true,true,true,true,true,true,true,true,true,true,false,true,true,true,true,false,false,true,false,false,false,true,false,true,true,false,true,true,true,false,false,false,false,false,false,false,false,false,false,false,false,false,false],"id":32,"left_children":[1,3,5,7,9,11,13,15,17,19,-1,21,23,25,27,-1,-1,29,-1,-1,-1,31,-1,33,35,-1,37,39,41,-1,-1,-1,-1,-1,-1,-1,-1,-1,-1,-1,-1,-1,-1],"loss_changes":[5.76411E1,2.201678E1,3.619094E1,9.113571E0,2.2562218E1,3.8128273E1,3.4885284E1,2.3028276E1,5.7491226E0,5.281318E0,0E0,3.9343727E1,6.678224E1,2.8555517E1,3.3064644E1,0E0,0E0,5.53096E0,0E0,0E0,0E0,4.3016335E1,0E0,3.6178318E1,3.8097893E1,0E0,2.2752445E1,2.180362E1,3.4687874E1,0E0,0E0,0E0,0E0,0E0,0E0,0E0,0E0,0E0,0E0,0E0,0E0,0E0,0E0],"parents":[2147483647,0,0,1,1,2,2,3,3,4,4,5,5,6,6,7,7,8,8,9,9,11,11,12,12,13,13,14,14,17,17,21,21,23,23,24,24,26,26,27,27,28,28],"right_children":[2,4,6,8,10,12,14,16,18,20,-1,22,24,26,28,-1,-1,30,-1,-1,-1,32,-1,34,36,-1,38,40,42,-1,-1,-1,-1,-1,-1,-1,-1,-1,-1,-1,-1,-1,-1],"split_conditions":[2.4351533E-1,5E-1,4.11754E-1,9.970126E-1,1.4307229E-2,9.9706906E-1,9.96114E-1,2.4312355E-1,9.9908006E-1,2.054282E-1,3.433727E-2,4.047619E-1,9.9773973E-1,4.9487638E-1,9.963313E-1,3.6886014E-2,-3.6638375E-2,1.5739298E-1,2.9848427E-2,2.6063303E-2,-3.5588514E-2,9.965382E-1,3.889932E-2,3.8477695E-1,9.9814314E-1,3.687131E-2,3.5714287E-1,4.5238096E-1,6.178636E-1,3.5413463E-2,-2.6680091E-2,-3.634163E-4,3.9529692E-2,-1.1323179E-2,3.908942E-2,3.997401E-2,7.3697246E-3,3.609502E-2,-9.275591E-3,-3.3104602E-2,3.6350723E-2,-6.1361296E-3,3.7428062E-2],"split_indices":[48,91,78,32,77,62,62,48,32,78,0,16,62,78,62,0,0,48,0,0,0,62,0,78,32,0,16,16,48,0,0,0,0,0,0,0,0,0,0,0,0,0,0],"split_type":[0,0,0,0,0,0,0,0,0,0,0,0,0,0,0,0,0,0,0,0,0,0,0,0,0,0,0,0,0,0,0,0,0,0,0,0,0,0,0,0,0,0,0],"sum_hessian":[3.1855327E3,4.058292E2,2.7797036E3,3.4416574E2,6.1663437E1,1.5473379E3,1.2323657E3,4.0599117E1,3.0356662E2,2.4556454E1,3.7106983E1,5.275599E2,1.01977795E3,2.4104527E2,9.913204E2,2.0254469E1,2.034465E1,2.996747E2,3.8919225E0,3.369677E0,2.1186777E1,3.611394E2,1.6642049E2,6.0887585E2,4.109021E2,8.386536E1,1.5717992E2,1.6419463E2,8.271258E2,2.8089063E0,2.968658E2,2.7226587E2,8.887351E1,5.719001E2,3.6975784E1,1.3126314E2,2.7963895E2,3.4590218E1,1.225897E2,1.5280954E2,1.1385083E1,7.7958307E2,4.7542732E1],"tree_param":{"num_deleted":"0","num_feature":"92","num_nodes":"43","size_leaf_vector":"0"}},{"base_weights":[1.1860018E-2,1.0884838E-1,-1.1003566E-1,2.9333428E-1,-5.8857042E-2,-1.9434096E-1,3.26008E-1,-1.4362274E-1,4.1465276E-1,-1.7102033E-1,3.1041032E-1,7.570001E-1,-2.2422004E-1,-6.3377523E-1,5.517992E-1,1.5785623E-1,-5.369233E-1,-3.2473332E-1,4.806567E-1,-2.253613E-1,7.41205E-1,1.1013632E-1,7.3255175E-1,-3.173564E-2,-3.116083E-1,-7.6605415E-1,5.6540287E-1,-5.7415056E-1,6.926026E-1,-1.7543936E-1,7.5315297E-1,6.446347E-1,-6.6825867E-1,7.2443104E-1,-6.5202373E-1,7.68563E-1,3.6590096E-1,7.5055E-1,-2.4976933E-1,4.4903067E-1,-4.89811E-1,-3.5528925E-1,3.7003896E-1,-3.2873657E-1,7.480811E-1,4.362208E-1,-6.775662E-1],"categories":[],"categories_nodes":[],"categories_segments":[],"categories_sizes":[],"default_left":[true,true,true,true,true,true,true,true,true,true,true,false,true,true,true,true,true,true,true,true,false,true,false,true,true,false,false,true,false,false,false,false,false,false,false,false,false,false,false,false,false,false,false,false,false,false,false],"id":33,"left_children":[1,3,5,7,9,11,13,15,17,19,21,-1,23,25,27,29,31,33,35,37,-1,39,-1,41,43,-1,-1,45,-1,-1,-1,-1,-1,-1,-1,-1,-1,-1,-1,-1,-1,-1,-1,-1,-1,-1,-1],"loss_changes":[3.712626E1,5.41229E1,5.1217247E1,4.421186E1,3.8028545E1,3.3333664E1,4.928849E1,2.1633715E1,3.1982712E1,3.506067E1,1.800907E1,0E0,1.9030552E1,7.329174E0,2.9465809E1,2.069745E1,1.2703506E1,1.9029549E1,1.9512726E1,1.6030231E1,0E0,2.9964882E1,0E0,4.6222412E1,1.437429E1,0E0,0E0,2.4821782E0,0E0,0E0,0E0,0E0,0E0,0E0,0E0,0E0,0E0,0E0,0E0,0E0,0E0,0E0,0E0,0E0,0E0,0E0,0E0],"parents":[2147483647,0,0,1,1,2,2,3,3,4,4,5,5,6,6,7,7,8,8,9,9,10,10,12,12,13,13,14,14,15,15,16,16,17,17,18,18,19,19,21,21,23,23,24,24,27,27],"right_children":[2,4,6,8,10,12,14,16,18,20,22,-1,24,26,28,30,32,34,36,38,-1,40,-1,42,44,-1,-1,46,-1,-1,-1,-1,-1,-1,-1,-1,-1,-1,-1,-1,-1,-1,-1,-1,-1,-1,-1],"split_conditions":[9.892626E-1,4.166667E-1,5E-1,9.847237E-1,9.027778E-1,6.3841885E-1,9.7540987E-1,9.193548E-1,1.388889E-1,7.641269E-1,9.870323E-1,3.7850004E-2,9.662067E-1,9.728099E-1,9.8960596E-1,5.48599E-1,7.169789E-1,9.027778E-1,6.918082E-1,9.8288035E-1,3.706025E-2,9.865285E-1,3.6627587E-2,9.897762E-1,5.833334E-1,-3.830271E-2,2.8270144E-2,9.8938847E-1,3.463013E-2,-8.771968E-3,3.765765E-2,3.2231737E-2,-3.3412933E-2,3.6221553E-2,-3.260119E-2,3.842815E-2,1.8295048E-2,3.7527498E-2,-1.2488467E-2,2.2451533E-2,-2.449055E-2,-1.7764462E-2,1.8501949E-2,-1.6436828E-2,3.7404057E-2,2.181104E-2,-3.3878308E-2],"split_indices":[33,19,15,33,69,18,64,68,19,17,33,0,2,2,33,17,18,69,18,33,0,33,0,33,19,0,0,33,0,0,0,0,0,0,0,0,0,0,0,0,0,0,0,0,0,0,0],"split_type":[0,0,0,0,0,0,0,0,0,0,0,0,0,0,0,0,0,0,0,0,0,0,0,0,0,0,0,0,0,0,0,0,0,0,0,0,0,0,0,0,0,0,0,0,0,0,0],"sum_hessian":[3.138302E3,1.747768E3,1.3905342E3,8.3189026E2,9.158777E2,1.1657086E3,2.2482545E2,1.8073756E2,6.511527E2,7.029091E2,2.1296858E2,3.47559E1,1.1309528E3,4.247361E1,1.8235185E2,1.02650734E2,7.808683E1,5.3042538E1,5.9811017E2,6.6410175E2,3.880738E1,1.4529709E2,6.767151E1,3.5355768E2,7.773951E2,3.85792E1,3.8944101E0,1.9926863E1,1.6242499E2,6.6258896E1,3.6391834E1,7.420451E0,7.0666374E1,1.2323813E1,4.0718723E1,1.6883336E2,4.2927682E2,1.5478323E1,6.486234E2,9.300984E1,5.2287243E1,1.9590714E2,1.5765053E2,7.657084E2,1.1686732E1,1.5514128E0,1.837545E1],"tree_param":{"num_deleted":"0","num_feature":"92","num_nodes":"47","size_leaf_vector":"0"}},{"base_weights":[-2.130327E-2,-2.0795968E-1,1.0510916E-1,-2.8274828E-1,3.6171615E-1,3.3963194E-1,-4.178033E-2,-1.1781786E-1,-4.460779E-1,-3.706246E-1,6.7628884E-1,1.0398185E-1,6.578967E-1,1.1869279E-1,-2.7227315E-1,-2.011375E-1,5.589019E-1,7.729548E-1,-4.815443E-1,6.5906054E-1,-6.0382813E-1,-5.861788E-1,2.2917242E-1,7.3904306E-1,-1.9262718E-1,-4.0257066E-3,5.661098E-1,-3.9453396E-1,3.8230103E-1,7.075891E-1,-2.5086522E-1,-4.1928923E-1,8.28852E-1,7.378041E-1,-5.0223106E-1,-6.771927E-1,4.9056062E-1,6.316245E-1,-6.8943644E-1,-8.351139E-2,4.7638798E-1,-7.3359424E-1,6.742872E-1,-4.6724075E-1,1.3209546E-1,-6.511146E-1,7.237059E-1,7.1113974E-1,-4.5471853E-1,-7.6848304E-1,7.353147E-1],"categories":[],"categories_nodes":[],"categories_segments":[],"categories_sizes":[],"default_left":[true,true,true,true,true,true,true,true,true,true,false,true,true,true,true,true,true,false,true,false,true,true,true,false,true,true,true,true,true,false,false,false,false,false,false,false,false,false,false,false,false,false,false,false,false,false,false,false,false,false,false],"id":34,"left_children":[1,3,5,7,9,11,13,15,17,19,-1,21,23,25,27,29,31,-1,33,-1,35,37,39,-1,41,43,45,47,49,-1,-1,-1,-1,-1,-1,-1,-1,-1,-1,-1,-1,-1,-1,-1,-1,-1,-1,-1,-1,-1,-1],"loss_changes":[7.819516E1,5.7111874E1,6.808338E1,3.1825012E1,3.6124725E1,5.7012337E1,4.500441E1,3.3387863E1,2.6062706E1,1.178868E1,0E0,3.802033E1,2.247609E1,3.9397728E1,4.0113735E1,2.3955738E1,1.7501274E1,0E0,1.4950943E1,0E0,3.4794416E0,8.936907E0,2.8786217E1,0E0,1.4084481E1,3.562743E1,3.0098476E1,2.8355804E1,3.2698154E1,0E0,0E0,0E0,0E0,0E0,0E0,0E0,0E0,0E0,0E0,0E0,0E0,0E0,0E0,0E0,0E0,0E0,0E0,0E0,0E0,0E0,0E0],"parents":[2147483647,0,0,1,1,2,2,3,3,4,4,5,5,6,6,7,7,8,8,9,9,11,11,12,12,13,13,14,14,15,15,16,16,18,18,20,20,21,21,22,22,24,24,25,25,26,26,27,27,28,28],"right_children":[2,4,6,8,10,12,14,16,18,20,-1,22,24,26,28,30,32,-1,34,-1,36,38,40,-1,42,44,46,48,50,-1,-1,-1,-1,-1,-1,-1,-1,-1,-1,-1,-1,-1,-1,-1,-1,-1,-1,-1,-1,-1,-1],"split_conditions":[1.8057945E-1,5E-1,9.6289253E-1,9.896799E-1,9.621671E-1,1.3027108E-1,2.8528398E-1,9.5626456E-1,9.3891394E-1,9.709872E-1,3.381444E-2,9.8109365E-1,7.524898E-1,2.4254158E-1,4.1490963E-1,9.1487825E-1,2.0741716E-1,3.864774E-2,2.7861446E-2,3.2953028E-2,9.7304624E-1,9.296763E-1,9.2857146E-1,3.6952153E-2,7.619817E-1,8.8709676E-1,9.375E-1,6.701808E-2,9.375E-1,3.5379454E-2,-1.2543261E-2,-2.0964462E-2,4.14426E-2,3.6890205E-2,-2.5111554E-2,-3.3859637E-2,2.4528032E-2,3.1581227E-2,-3.447182E-2,-4.1755694E-3,2.38194E-2,-3.667971E-2,3.371436E-2,-2.3362039E-2,6.604773E-3,-3.255573E-2,3.6185294E-2,3.5556987E-2,-2.2735927E-2,-3.8424153E-2,3.6765736E-2],"split_indices":[47,91,2,33,1,77,47,1,1,2,0,63,48,47,77,1,48,0,77,0,2,1,43,0,48,38,67,77,67,0,0,0,0,0,0,0,0,0,0,0,0,0,0,0,0,0,0,0,0,0,0],"split_type":[0,0,0,0,0,0,0,0,0,0,0,0,0,0,0,0,0,0,0,0,0,0,0,0,0,0,0,0,0,0,0,0,0,0,0,0,0,0,0,0,0,0,0,0,0,0,0,0,0,0,0],"sum_hessian":[3.312033E3,1.337088E3,1.9749448E3,1.1823672E3,1.5472076E2,7.6008545E2,1.2148595E3,5.8915704E2,5.9321014E2,4.6436386E1,1.0828438E2,4.3748718E2,3.2259824E2,7.1650275E2,4.983567E2,5.251962E2,6.396086E1,1.6182981E1,5.7702716E2,8.23768E0,3.8198708E1,6.660722E1,3.7087997E2,2.9462033E2,2.79779E1,5.630572E2,1.5344554E2,4.2025842E2,7.809826E1,2.6562506E1,4.986337E2,1.3713914E1,5.0246944E1,9.047908E0,5.679793E2,3.615612E1,2.0425842E0,4.806242E0,6.180098E1,1.6404913E2,2.0683084E2,1.7322313E1,1.0655586E1,1.27329E2,4.357282E2,1.7230541E1,1.3621501E2,2.1136463E1,3.9912198E2,1.8057138E1,6.004112E1],"tree_param":{"num_deleted":"0","num_feature":"92","num_nodes":"51","size_leaf_vector":"0"}},{"base_weights":[-2.9497797E-2,-1.8899931E-1,7.722828E-2,-2.566314E-1,2.5998423E-1,3.610979E-1,-4.5002267E-2,-1.16024405E-1,-4.0663233E-1,-3.4663865E-1,6.628608E-1,5.6933117E-1,1.2289562E-1,-9.1870606E-2,7.091946E-1,1.0986253E-1,-3.4390503E-1,-4.5284334E-1,2.2731099E-1,6.410374E-1,-5.893428E-1,6.50749E-1,-1.8042576E-1,7.461705E-1,-1.2689309E-1,-4.4027543E-1,-2.5923995E-2,8.222743E-1,-7.284475E-2,7.19952E-1,-4.0097544E-1,7.4806696E-1,-4.723501E-1,-5.845729E-1,7.833736E-1,5.6598824E-1,-6.646435E-1,7.443847E-1,-1.7685527E-1,-7.8919005E-1,6.751999E-1,-3.9588737E-1,7.324512E-1,2.1803875E-1,-6.213357E-1,3.891171E-1,-1.488803E-1],"categories":[],"categories_nodes":[],"categories_segments":[],"categories_sizes":[],"default_left":[true,true,true,true,true,true,true,true,true,true,false,true,true,true,false,true,true,true,true,false,true,true,true,false,true,true,true,false,false,false,false,false,false,false,false,false,false,false,false,false,false,false,false,false,false,false,false],"id":35,"left_children":[1,3,5,7,9,11,13,15,17,19,-1,21,23,25,-1,27,29,31,33,-1,35,37,39,-1,41,43,45,-1,-1,-1,-1,-1,-1,-1,-1,-1,-1,-1,-1,-1,-1,-1,-1,-1,-1,-1,-1],"loss_changes":[5.6174885E1,4.023562E1,6.862197E1,2.4211128E1,4.267479E1,2.9454704E1,4.895188E1,3.0669197E1,1.6393768E1,1.714993E1,0E0,1.948787E1,4.3518017E1,2.9926075E1,0E0,3.9056736E1,1.82888E1,1.2503059E1,1.7815533E1,0E0,5.307783E0,2.2330017E1,1.7131163E1,0E0,4.6514744E1,2.4846333E1,5.602299E1,0E0,0E0,0E0,0E0,0E0,0E0,0E0,0E0,0E0,0E0,0E0,0E0,0E0,0E0,0E0,0E0,0E0,0E0,0E0,0E0],"parents":[2147483647,0,0,1,1,2,2,3,3,4,4,5,5,6,6,7,7,8,8,9,9,11,11,12,12,13,13,15,15,16,16,17,17,18,18,20,20,21,21,22,22,24,24,25,25,26,26],"right_children":[2,4,6,8,10,12,14,16,18,20,-1,22,24,26,-1,28,30,32,34,-1,36,38,40,-1,42,44,46,-1,-1,-1,-1,-1,-1,-1,-1,-1,-1,-1,-1,-1,-1,-1,-1,-1,-1,-1,-1],"split_conditions":[1.825875E-1,5E-1,3.671217E-1,9.8959184E-1,9.208262E-2,9.669508E-1,9.9101174E-1,8.6764705E-1,3.727356E-1,8.706254E-2,3.314304E-2,4.143718E-1,9.9700576E-1,9.375E-1,3.545973E-2,9.609922E-1,9.741379E-1,9.60304E-1,1.3496844E-1,3.2051872E-2,1.496006E-1,9.987556E-1,4.2183018E-1,3.7308525E-2,9.977109E-1,9.4922495E-1,9.860921E-1,4.1113716E-2,-3.6422375E-3,3.59976E-2,-2.0048773E-2,3.740335E-2,-2.3617504E-2,-2.9228646E-2,3.9168682E-2,2.8299412E-2,-3.323218E-2,3.7219238E-2,-8.8427635E-3,-3.9459504E-2,3.3759996E-2,-1.979437E-2,3.662256E-2,1.0901938E-2,-3.1066785E-2,1.9455856E-2,-7.4440152E-3],"split_indices":[47,15,78,63,47,2,63,71,48,47,0,47,32,37,0,2,70,2,47,0,78,32,47,0,32,2,63,0,0,0,0,0,0,0,0,0,0,0,0,0,0,0,0,0,0,0,0],"split_type":[0,0,0,0,0,0,0,0,0,0,0,0,0,0,0,0,0,0,0,0,0,0,0,0,0,0,0,0,0,0,0,0,0,0,0,0,0,0,0,0,0,0,0,0,0,0,0],